/*
 * Copyright (c) 2025 EdgeImpulse Inc.
 *
 * Generated by Edge Impulse and licensed under the applicable Edge Impulse
 * Terms of Service. Community and Professional Terms of Service
 * (https://edgeimpulse.com/legal/terms-of-service) or Enterprise Terms of
 * Service (https://edgeimpulse.com/legal/enterprise-terms-of-service),
 * according to your product plan subscription (the “License”).
 *
 * This software, documentation and other associated files (collectively referred
 * to as the “Software”) is a single SDK variation generated by the Edge Impulse
 * platform and requires an active paid Edge Impulse subscription to use this
 * Software for any purpose.
 *
 * You may NOT use this Software unless you have an active Edge Impulse subscription
 * that meets the eligibility requirements for the applicable License, subject to
 * your full and continued compliance with the terms and conditions of the License,
 * including without limitation any usage restrictions under the applicable License.
 *
 * If you do not have an active Edge Impulse product plan subscription, or if use
 * of this Software exceeds the usage limitations of your Edge Impulse product plan
 * subscription, you are not permitted to use this Software and must immediately
 * delete and erase all copies of this Software within your control or possession.
 * Edge Impulse reserves all rights and remedies available to enforce its rights.
 *
 * Unless required by applicable law or agreed to in writing, the Software is
 * distributed on an "AS IS" BASIS, WITHOUT WARRANTIES OR CONDITIONS OF ANY KIND,
 * either express or implied. See the License for the specific language governing
 * permissions, disclaimers and limitations under the License.
 */
// Generated on: 09.08.2025 14:24:25

#include <stdio.h>
#include <stdlib.h>
#include "edge-impulse-sdk/tensorflow/lite/c/builtin_op_data.h"
#include "edge-impulse-sdk/tensorflow/lite/c/common.h"
#include "edge-impulse-sdk/tensorflow/lite/micro/micro_mutable_op_resolver.h"
#include "edge-impulse-sdk/porting/ei_classifier_porting.h"

#if EI_CLASSIFIER_PRINT_STATE
#if defined(__cplusplus) && EI_C_LINKAGE == 1
extern "C" {
    extern void ei_printf(const char *format, ...);
}
#else
extern void ei_printf(const char *format, ...);
#endif
#endif

#define STRINGIZE(x) #x
#define STRINGIZE_VALUE_OF(x) STRINGIZE(x)

#if defined (__GNUC__)  /* GNU compiler */
#define ALIGN(X) __attribute__((aligned(X)))
#define DEFINE_SECTION(x) __attribute__((section(x)))
#elif defined (_MSC_VER)
#define ALIGN(X) __declspec(align(X))
#elif defined (__TASKING__) /* TASKING Compiler */
#define ALIGN(X) __align(X)
#define DEFINE_SECTION(x) __attribute__((section(x)))
#elif defined (__ARMCC_VERSION) /* Arm Compiler */
#define ALIGN(X) __ALIGNED(x)
#define DEFINE_SECTION(x) __attribute__((section(x)))
#elif defined (__ICCARM__) /* IAR Compiler */
#define ALIGN(x) __attribute__((aligned(x)))
#define DEFINE_SECTION(x) __attribute__((section(x)))
#elif defined (__clang__) /* LLVM/Clang Compiler */
#define ALIGN(X) __ALIGNED(x)
#define DEFINE_SECTION(x) __attribute__((section(x)))
#endif

#if defined(EI_MODEL_SECTION) && (defined(__GNUC__) || defined(__clang__))
#define MODEL_SECTION(X) __attribute__((section(STRINGIZE_VALUE_OF(X))))
#else
#define MODEL_SECTION(X)
#endif

#ifndef EI_MAX_SCRATCH_BUFFER_COUNT
#ifndef CONFIG_IDF_TARGET_ESP32S3
#define EI_MAX_SCRATCH_BUFFER_COUNT 4
#else
#define EI_MAX_SCRATCH_BUFFER_COUNT 8
#endif // CONFIG_IDF_TARGET_ESP32S3
#endif // EI_MAX_SCRATCH_BUFFER_COUNT

#ifndef EI_MAX_OVERFLOW_BUFFER_COUNT
#define EI_MAX_OVERFLOW_BUFFER_COUNT 10
#endif // EI_MAX_OVERFLOW_BUFFER_COUNT

using namespace tflite;
using namespace tflite::ops;
using namespace tflite::ops::micro;

namespace {

#if defined(EI_CLASSIFIER_ALLOCATION_STATIC_HIMAX) || defined(EI_CLASSIFIER_ALLOCATION_STATIC_HIMAX_GNU)
constexpr int kTensorArenaSize = 186752;
#else
constexpr int kTensorArenaSize = 185728;
#endif

#if defined(EI_CLASSIFIER_ALLOCATION_STATIC)
#if defined (EI_TENSOR_ARENA_LOCATION)
uint8_t tensor_arena[kTensorArenaSize] ALIGN(16) DEFINE_SECTION(STRINGIZE_VALUE_OF(EI_TENSOR_ARENA_LOCATION));
#else
uint8_t tensor_arena[kTensorArenaSize] ALIGN(16);
#endif
#elif defined(EI_CLASSIFIER_ALLOCATION_STATIC_HIMAX)
#pragma Bss(".tensor_arena")
uint8_t tensor_arena[kTensorArenaSize] ALIGN(16);
#pragma Bss()
#elif defined(EI_CLASSIFIER_ALLOCATION_STATIC_HIMAX_GNU)
uint8_t tensor_arena[kTensorArenaSize] ALIGN(16) __attribute__((section(".tensor_arena")));
#else
#define EI_CLASSIFIER_ALLOCATION_HEAP 1
uint8_t* tensor_arena = NULL;
#endif

static uint8_t* tensor_boundary;
static uint8_t* current_location;

template <int SZ, class T> struct TfArray {
  int sz; T elem[SZ];
};

enum used_operators_e {
  OP_CONV_2D, OP_MAX_POOL_2D, OP_RESHAPE, OP_FULLY_CONNECTED, OP_SOFTMAX,  OP_LAST
};

struct TensorInfo_t { // subset of TfLiteTensor used for initialization from constant memory
  TfLiteAllocationType allocation_type;
  TfLiteType type;
  void* data;
  TfLiteIntArray* dims;
  size_t bytes;
  TfLiteQuantization quantization;
};

typedef struct {
  TfLiteTensor tensor;
  int16_t index;
} TfLiteTensorWithIndex;

typedef struct {
  TfLiteEvalTensor tensor;
  int16_t index;
} TfLiteEvalTensorWithIndex;

TfLiteContext ctx{};
static const int MAX_TFL_TENSOR_COUNT = 4;
static TfLiteTensorWithIndex tflTensors[MAX_TFL_TENSOR_COUNT];
static const int MAX_TFL_EVAL_COUNT = 4;
static TfLiteEvalTensorWithIndex tflEvalTensors[MAX_TFL_EVAL_COUNT];
TfLiteRegistration registrations[OP_LAST];

namespace g0 {
const TfArray<4, int> tensor_dimension0 = { 4, { 1,96,96,1 } };
const TfArray<1, float> quant0_scale = { 1, { 0.0039215688593685627, } };
const TfArray<1, int> quant0_zero = { 1, { -128 } };
const TfLiteAffineQuantization quant0 = { (TfLiteFloatArray*)&quant0_scale, (TfLiteIntArray*)&quant0_zero, 0 };
const MODEL_SECTION(EI_MODEL_SECTION) ALIGN(8) int32_t tensor_data1[2] = { -1, 18432, };
const TfArray<1, int> tensor_dimension1 = { 1, { 2 } };
const MODEL_SECTION(EI_MODEL_SECTION) ALIGN(8) int32_t tensor_data2[3] = { -9124, 1391, 11558, };
const TfArray<1, int> tensor_dimension2 = { 1, { 3 } };
const TfArray<1, float> quant2_scale = { 1, { 6.1749881297146203e-07, } };
const TfArray<1, int> quant2_zero = { 1, { 0 } };
const TfLiteAffineQuantization quant2 = { (TfLiteFloatArray*)&quant2_scale, (TfLiteIntArray*)&quant2_zero, 0 };
const MODEL_SECTION(EI_MODEL_SECTION) ALIGN(16) int8_t tensor_data3[3*18432] = { 
  37, 5, 51, -53, -35, 38, 43, -58, -67, 48, 28, -32, -9, -77, 21, 3, -74, -81, 10, 7, -63, 60, 69, 43, -57, -56, 33, -42, -66, -44, 25, -68, 7, 2, -54, -38, 24, -51, -72, 37, -46, -58, 30, 4, 18, -39, 47, -46, 23, 9, -55, -51, -13, -58, 8, 33, 8, -62, 34, -62, -15, 7, -13, -47, 16, 25, -21, 32, -57, 45, 2, -64, -63, 4, -72, 25, -60, 17, 32, 38, -53, -77, 53, -7, 47, -24, 54, -4, -66, 45, -23, -12, -4, 29, 48, -45, -23, -32, 29, -12, -51, 42, -24, 20, 19, -69, -4, -13, -14, 43, -39, 12, -25, 57, -5, -53, 10, -2, -60, -5, 47, -36, 9, -43, -57, -18, 50, -53, 28, -45, -64, 29, 51, -87, -11, -19, 43, -71, 32, -14, -26, 17, -5, -52, -58, 36, -47, 23, 47, -22, 31, -44, -23, -81, -15, -6, 37, -80, 42, -44, 42, -50, -67, 28, -3, 8, 5, -14, 0, 9, -26, 10, 44, -4, 52, -9, -62, -27, 44, 32, 46, -56, -51, -23, 0, 11, -9, -6, -86, -31, 37, -44, 34, 49, -34, 3, 26, -4, 15, 59, -26, 46, 28, -12, 33, -55, 46, 30, -58, -75, -40, 59, 50, -74, -99, -26, 63, 2, -4, -9, -22, -41, 23, 31, -79, 10, 16, 30, 34, 19, 9, -22, 51, 35, -27, 5, -27, 36, -55, 1, -23, 45, -67, -6, 58, -42, -70, 35, -11, -11, -37, 49, 48, 69, -16, 17, 5, 6, 66, 42, -49, -36, 15, -6, -63, 23, 36, 34, 68, 3, 9, 33, -83, -44, 23, -8, -26, -67, 6, -8, -39, -49, -53, -24, 3, 10, -52, 35, -51, 35, 65, -22, -55, -19, 8, 28, 4, -51, -39, -28, -15, 52, 50, 12, -18, -48, 33, 4, -72, 35, 35, 91, -17, 70, -38, -23, 14, 21, -10, -39, 59, -40, 71, -1, 19, 41, -39, 61, -12, -61, -6, -69, 43, -7, -8, -23, -84, 36, -56, 56, -54, -1, 59, 75, 54, -24, -35, 61, 46, -24, 35, -60, -36, -14, -30, -20, 32, 18, -10, 23, -28, -51, -18, -2, -17, -62, 1, 47, 8, -4, 29, 24, 46, 41, -18, 71, 3, 43, -52, 51, -66, 7, -20, -22, -52, 16, 5, 7, -72, -11, -29, -51, -30, -10, -26, -50, -8, -34, -11, 33, 30, -15, -67, -37, -6, -76, -52, 55, -2, 14, -75, -53, 14, 13, 24, 23, 53, 29, 2, -28, -49, 56, 59, 35, -73, 39, 54, -25, -36, -32, 58, 36, -15, -32, -68, -30, 47, -54, 18, 65, 25, 15, -45, -43, 8, -15, -22, -55, -53, 5, -9, 39, 25, -7, 4, -52, -74, 25, -16, 2, -22, 6, -3, 37, 84, -37, 1, 0, 0, -3, -24, 19, -46, -20, 58, -33, 6, 24, 56, 31, 22, 65, -17, -4, -71, -17, -20, -29, -71, -50, 30, 56, -20, 48, -37, -22, -7, -26, -65, 42, 61, -36, 66, 51, -47, -48, 46, -28, 19, 45, 36, -38, -76, 42, 27, 45, -13, 65, -9, 12, -11, -73, 19, 14, 48, 4, 30, 13, 72, 46, -20, 6, 63, -40, 14, 72, -45, -7, -61, -32, -47, 47, 34, -9, -31, -2, 26, 70, -17, 48, -34, 25, -32, 23, -49, 61, -11, 44, 2, 5, -66, 57, -31, -3, 9, -5, 25, 4, 26, -27, -7, -44, 61, 26, -32, 44, -18, -50, -53, 32, 36, 12, 59, 62, 18, 25, 17, 60, 52, -56, 28, -2, -25, 49, 32, -41, -37, 10, -39, -90, 65, -41, -14, -55, -62, -30, -15, 71, 44, 36, 12, 0, 14, 14, 50, -53, 22, 10, 26, 53, -14, 56, -61, 25, 13, 52, -35, 11, 53, -5, 68, 38, -45, 53, -1, -5, 29, -24, 44, 31, 0, -4, -26, 6, 58, 60, -50, 28, 52, -41, -14, 20, -9, -38, -39, 13, -5, 33, -28, -28, 26, -41, 14, 13, -4, -29, 20, 46, -25, -64, 16, 23, 58, 58, 2, 21, 29, -24, -1, -38, -38, 24, 62, -47, 46, 1, 32, -14, -61, -48, 42, 69, -21, -30, -46, -22, 10, 37, 58, -31, -13, -50, -33, -34, 54, 31, 81, -66, 23, -22, 4, -37, 43, -1, 30, -27, -23, -37, 1, -33, -93, -11, -16, -1, 29, -50, -64, 58, 68, -35, -54, -22, 6, -68, 42, -44, 15, -36, 54, -62, 26, -51, -17, -13, 63, 52, 80, -17, -70, 43, 21, -42, -74, 44, 0, 3, 16, 29, -4, 27, 22, 29, -36, 6, -4, -15, 15, 25, -35, -38, -11, -5, -65, 5, 13, -73, -19, -8, -65, -51, -96, -12, -16, 21, -2, -36, 6, -49, -6, 35, -23, 23, -4, -24, 13, -73, -31, -88, -5, -61, 14, 43, -2, -22, -46, 34, -65, -23, 37, 67, 18, -9, -46, 54, -34, 25, 54, -34, -55, 12, 7, 32, -7, 9, 43, -26, 54, 6, -11, -43, 10, -7, -17, 67, -3, -20, -57, -95, 14, 37, -12, -24, 35, -56, -37, -66, 54, 24, 41, -14, -27, -72, -35, -65, 21, -48, 23, 34, -72, -7, -53, -5, -63, -41, 43, 24, -74, 15, -49, 11, -15, 54, -25, 52, -62, -37, 37, -46, 7, -17, -47, -23, -42, 47, -23, 30, 38, -17, -49, 71, 41, -50, 2, 20, -58, 2, -57, 32, -63, -22, -75, 43, -65, 35, -9, 10, -43, -28, -73, 50, 24, 11, -102, -23, -49, -2, -46, 12, 39, -98, 51, -6, 64, -96, -13, 24, -44, -73, 23, -39, -56, -20, -29, -48, 17, 35, -74, 22, -4, 9, 16, 46, 43, 46, -23, -70, -75, -39, 4, 33, -84, -74, -34, -72, -17, 8, -63, -46, 27, 53, 8, 30, 14, -51, -50, -27, 4, -40, 27, -15, -27, -12, 66, -10, 18, -25, -3, 3, 34, 32, -59, -47, -88, 5, -41, -40, 46, 23, -57, 39, 18, -45, -1, 27, 17, 8, -23, -17, -32, 51, 41, -8, 43, 43, 20, 53, -17, -47, -11, -29, -60, 5, 14, -63, -100, 2, 40, 24, -23, 19, 10, -8, -56, 48, 58, 3, -11, -27, -1, 31, -47, -9, 36, -11, -22, -40, 54, -35, -8, 11, -28, -33, -20, -29, 33, 2, -63, -15, -10, -30, -36, -23, -71, -32, -26, -62, -2, 60, 73, -41, -45, 48, -45, -62, -3, -29, 42, -55, 47, -48, 61, 48, -19, -25, -22, 8, 29, 45, 55, 11, -7, 88, -18, -2, -16, 32, 36, -28, 55, 34, -5, 62, 46, 40, -8, 33, 29, 73, 7, 6, 31, -34, -50, -15, -77, 62, -12, -13, -55, -17, -6, -4, -4, 96, -34, -9, -19, -67, -44, -50, -56, -2, 55, -17, 47, 69, -28, 13, -15, 90, -22, -32, -63, -4, 64, 21, -13, 20, -48, 4, -39, 26, 37, -25, -23, 83, 34, 55, -32, -41, -14, 42, 6, 54, -40, 2, 51, -41, -41, -64, 54, -2, -45, -63, 4, 46, 29, 22, -2, 52, -8, -6, -47, -1, 41, 16, 3, 40, -44, -2, 55, 7, 20, -30, 45, -19, -36, 26, -75, -34, -20, -66, 4, 61, -11, 12, 3, -48, 65, 26, -53, -44, -20, -9, 20, -21, 70, 13, 53, 97, -53, 58, -74, 15, 1, 20, 4, 6, -62, 14, 2, 63, 45, 5, -61, 5, -6, 48, 33, -66, 29, -61, -5, 37, -10, -53, 34, -32, -1, -59, 38, 4, -44, -30, -34, 17, -54, 28, -4, -3, 8, -44, 11, 49, 43, -9, 42, 26, 13, -2, -57, -28, 14, -73, -73, 67, -34, 70, 20, 50, -38, 81, -14, 45, 42, 56, -42, 8, -53, -31, 54, 13, 32, 0, 2, 66, -11, -64, 21, -3, -44, -64, -29, -44, -20, -14, -6, 21, -46, -45, -13, 9, -4, 98, 57, 62, 41, -44, 73, -28, -2, 52, -19, -43, -41, -77, 10, 34, -26, 37, 70, -59, 60, -33, -9, -9, -41, -23, -17, -29, -3, -25, -22, 54, -38, -37, 1, 15, -44, -18, -36, -15, -7, -18, -62, 14, -16, -12, 44, -49, 41, -51, -42, 31, 48, 72, 36, 30, -26, 7, -63, -15, -15, -38, 30, 37, -89, -38, 45, 21, -2, -30, 14, 1, -18, -27, 17, -23, 80, -33, 28, 17, 71, 35, -35, 13, 30, 34, 51, -18, 51, 10, 6, -36, 31, -4, 77, 60, 26, -63, 35, -38, 67, -12, -4, -65, -28, 60, -21, 25, 75, -51, -12, 38, -53, 44, 67, 33, 50, 30, 43, -42, 53, 8, -35, 74, 56, -38, -18, 8, 7, 48, -36, 22, -10, 51, 70, -36, 55, 17, 39, 71, 18, -53, -47, 8, 52, 51, -39, -9, 25, 3, -12, 43, -39, 55, -31, 27, -44, 17, 21, 59, 75, 47, 12, -40, 66, 51, 38, -34, 54, -28, -8, -44, -23, -60, 39, -73, -33, 13, 64, -50, -39, 28, -26, -6, -31, 71, 20, 31, 80, 6, -47, 51, 43, 65, 17, -21, 9, -4, -20, 47, -47, -32, 14, -15, 76, -69, -25, 14, 1, -56, 4, 43, 52, 1, -14, 41, -38, 23, -17, -20, 59, 60, 54, -48, 22, 52, 3, 42, -1, 12, 39, -64, 20, 72, 23, 42, 44, -21, 45, -33, -23, 7, -42, -33, -34, -50, -98, -41, 55, 35, -23, -12, -54, 49, 1, 47, -14, 17, 60, 6, -35, 2, -31, -89, 46, -37, -17, 8, -11, -66, -65, -98, -64, -65, 30, 65, -35, -26, -41, -59, -8, -34, -56, -31, -53, -8, -10, 35, 45, -22, -5, -38, 37, -23, -31, -51, -63, -40, 22, 43, -54, -20, 47, -15, 32, -43, 43, 37, -50, -31, -32, 45, 50, -79, 12, -38, 47, 6, -36, 22, -33, -83, -56, -36, -15, -8, 6, 8, 33, 1, 2, -19, 35, 25, -16, 3, 13, 14, -72, 46, -7, 24, -41, -9, 26, -54, -41, -9, 19, -39, 5, 39, 93, -121, 42, -1, 49, -33, -34, -47, 38, 54, -44, 1, 12, -89, -76, -91, 34, -5, -50, 76, -58, -23, -67, 47, 22, 68, -115, -23, -38, 27, -45, -13, -46, -91, 28, -9, -59, -12, -55, -38, 10, -31, -24, 45, 30, -109, 16, -100, -64, 45, -35, 16, -31, 24, -116, -59, -25, 52, -57, 46, 3, 36, 1, -56, -27, -97, -29, -1, 2, -6, 53, 32, 48, -33, 44, -42, -63, -77, -42, -44, 53, -9, -17, 17, -75, 57, -20, -45, -44, 50, -6, -14, -28, -2, 12, 45, -9, 24, -47, 52, 3, 43, 20, -11, -6, 41, -39, -27, 10, 35, -7, -12, 8, -20, -14, 30, -25, 9, 0, -38, -36, 4, 7, 1, 52, 0, -63, -20, -56, 59, -7, -53, -37, -44, -43, 11, -4, -12, -12, 29, -23, 37, 52, 3, 8, 4, -23, 21, -12, -5, 41, -5, 10, 21, 52, -15, 39, -32, 60, -68, 56, 62, 11, 58, 58, -31, 15, 50, -1, 22, 21, 33, -46, 84, 72, -58, -27, -36, -10, -55, -26, 50, 43, 27, 40, -71, 22, -30, -28, 51, 22, 10, -37, 40, -38, 54, -57, 18, 46, -57, 30, 4, 15, 59, -27, -5, 55, 28, -48, -8, -71, 70, -17, 14, 71, 33, 23, -27, -12, 35, -21, 70, -56, 10, 20, 31, 35, 90, 7, -32, 60, -27, 61, 16, -58, 89, -34, -70, -39, 55, -52, -41, -20, -58, 57, 42, -27, 19, -45, 33, -24, -11, 6, -26, 25, -56, 7, -29, 41, 44, -1, 33, 9, 25, 27, 41, -57, 27, 25, -16, -23, -30, -59, 8, -62, 15, 54, 23, 46, -39, 67, 12, 19, -43, -34, 23, -40, -74, 36, 25, 55, 17, 7, 51, 12, -13, 7, 9, 30, 9, -6, 40, -51, -49, -70, -20, 41, 10, 2, 15, -1, -70, -4, 0, 18, -52, 20, 19, 29, -34, 14, 83, 63, 4, 25, 7, -73, 35, -3, 4, -64, 27, -56, 83, -40, -22, 24, -64, -41, 12, -19, -51, 23, -36, -30, -28, -38, 34, -69, 43, 43, 46, -42, -21, 13, -2, -71, -58, 28, 41, -1, 3, -47, 67, 47, 10, 9, -22, 52, -31, -53, 41, 29, -34, 24, 55, 52, -24, -29, 58, 49, 11, 55, -13, -96, -5, -27, 30, 44, 30, 19, 8, -1, -30, 31, 35, -1, -40, -29, -46, 26, -52, 53, 21, 24, 18, -21, -27, 5, 45, 55, -17, -59, 10, -34, 61, -17, 40, 32, -34, 57, -33, -64, 41, 6, -35, 39, 12, 65, 38, -26, 60, -40, -47, -46, -55, -38, -19, -48, -41, 72, -62, -13, -22, -22, 68, -54, -9, -7, 37, 55, -42, -45, 71, 44, -40, -16, 76, -2, -51, 42, -60, 32, 24, -13, 50, 19, -83, -13, 37, -1, -66, -33, -27, -83, 49, 15, 3, -31, -25, 24, 7, -47, 16, 64, -30, 44, -22, 3, -5, -36, -21, 62, 0, 46, 30, 43, 44, -38, 29, 50, 15, 53, 43, 12, 83, -50, 40, -25, 25, -45, -35, -54, -37, 14, 54, -47, -50, -44, -61, 36, -51, -30, 29, -33, -21, 29, -20, 55, 7, 35, 46, -40, 70, -11, -32, 2, -38, -57, 32, -39, -15, 19, 62, -10, 39, -34, 90, -23, 30, -18, -56, 18, 77, 46, 78, -25, -15, 52, 48, 32, 3, -21, 47, 38, -25, -41, -25, -44, 43, -45, -35, -50, -47, 26, 47, 0, 37, -37, -32, 60, 74, -23, 63, 63, -11, 14, 22, 55, -19, 45, 17, -17, -35, -7, 28, -18, -3, -32, 25, -6, 23, -38, 34, -38, 31, -24, 6, -26, 12, -24, 64, 18, 43, 57, -8, -26, 62, -61, -4, 41, -46, 70, -40, -19, -10, 44, -71, 76, -37, 23, 20, 31, -25, 17, 59, 65, 9, 65, -38, -30, -16, -17, 11, -22, -5, -38, 5, 9, 50, 9, -45, 51, -42, -36, -50, -18, -28, -20, 2, 7, 28, 4, -52, -78, -39, -12, 47, 23, 36, 2, -51, -41, -5, -18, 8, -26, 2, -15, -50, -43, 57, 1, -28, 47, -101, -9, 18, 4, -30, 56, -49, -56, -12, -69, 43, -61, 55, -56, -65, -7, 37, 30, -12, -18, -59, 11, 5, 58, -25, -48, -26, -44, 2, -52, 54, -74, -62, 12, -83, 42, 6, -61, -30, -45, -58, 14, -3, 4, -36, 22, 14, -11, 22, 4, -27, -1, 4, 42, -32, 8, -18, -67, 31, 54, -44, 20, -80, 35, -71, 30, -15, 7, -19, -25, 4, -50, -39, 17, -41, 52, 40, -81, -20, -26, -4, 21, -9, -108, -42, 11, -32, 25, -11, -29, -19, 43, -28, -19, 15, 30, -99, 51, -25, -14, 56, -15, 15, 35, -11, -59, -56, 18, 8, -93, 61, -63, -71, -7, -53, 6, -104, 65, -70, 15, 5, 68, 28, -40, 45, 22, 68, -43, -73, 45, -98, 2, 33, 15, 8, -59, 35, -8, 20, -5, 8, -98, 43, 4, -8, 62, -50, -14, 17, 14, 40, 44, -46, 12, 22, -1, -35, -11, 56, 2, -94, 30, 5, -54, -59, 26, -26, -7, -14, -57, -34, 17, 17, -10, -12, 1, -62, 31, -61, -12, -9, -22, 1, 48, 37, -41, 6, 53, 15, -28, 78, -10, -68, -35, -5, 38, -60, 2, -30, -13, 48, 30, 54, 6, 3, -28, -42, 19, 14, 38, 16, -22, 18, 14, -20, -5, -50, -19, -74, 21, 51, -71, -31, -21, -1, 42, 7, 16, -58, -73, 31, -18, 33, 26, 41, 16, 47, -25, -13, -29, 13, 8, 50, -47, -2, -17, -18, -54, 0, -15, 14, -20, -5, 40, -16, 57, 50, -27, 21, 52, 15, 43, 49, 42, 0, -34, 49, 55, 20, -25, 67, 49, 4, -12, -44, 12, 0, 75, 19, -56, 71, 14, -17, 1, -8, -52, -29, -18, -19, -70, 37, 42, -45, -41, 67, -53, -7, -45, -43, 12, -43, 22, 26, 45, 15, -56, -15, 21, 17, 16, 57, -6, -67, 58, 10, 26, 70, 44, 91, 3, -28, -7, 0, -47, 2, -70, 62, 1, 36, 73, -62, -24, -14, 22, 11, 1, 33, -38, 40, 67, 68, -8, -58, 13, 93, -22, 12, -30, 35, -34, 78, 77, 27, 1, 37, -7, -56, 34, 26, -42, -59, -17, 40, -8, -16, 21, -16, 61, 58, 48, -41, -24, 13, 12, 69, 52, -25, 38, 10, 40, 41, 10, 82, 43, 5, -12, -30, 36, -13, -62, -20, -22, -56, 40, 30, 40, 32, 26, -29, -33, -42, -39, -2, 9, 25, -47, -34, -16, 8, 4, -13, 30, -8, -34, 67, -26, -1, 47, -70, -13, 23, 42, -28, -25, 12, 54, -49, 1, 2, 35, 25, -21, -46, -38, 14, 38, 64, -47, 3, -22, -36, -67, 33, 41, -52, 51, 12, 40, -56, -58, -17, 28, -69, 3, -92, 25, -11, -27, -64, -22, 42, 33, -6, -54, -12, 2, 3, -37, 34, 71, 0, 46, 15, 55, 47, 25, 45, -10, 48, 22, -8, 39, 23, 28, -60, -6, -33, 10, -58, -58, -60, 32, 7, 5, -2, 13, -20, -51, -59, -59, 1, -16, -20, -56, -53, 37, -6, -28, 11, -63, 54, 70, -4, -20, -25, -36, 17, -70, -54, -56, -62, -49, 16, 67, -41, -110, -60, -50, -29, -21, -35, -36, 14, 29, -19, 58, 29, -12, -54, 37, -33, -52, -28, -32, -64, 47, -17, -10, -31, -3, -54, -39, -2, 11, -15, 33, 5, -66, 57, -51, -13, -9, -46, 9, 45, -22, 12, 35, 49, 47, 9, 57, 40, -47, 48, 50, -24, 79, -56, 17, -38, 14, -24, 45, -56, -10, 70, -30, 44, -30, 38, 21, 15, -35, -19, -83, 26, -16, 29, 10, -32, 13, -23, -34, 14, 22, 6, 71, 6, 17, -14, 68, -1, 10, 15, 70, 49, 38, 30, -16, -48, 4, -7, -37, 33, 44, -1, 22, 24, -24, 12, -38, -57, -3, -21, 3, 35, 64, 41, 10, -40, 12, -40, -27, 39, 54, -65, -37, 60, -30, 65, -50, 18, -28, -16, -25, 5, -23, -44, 1, 64, 69, -82, 67, -33, -20, -42, -61, 24, 2, -44, -24, 43, 55, 13, 37, 31, -15, 16, 41, 68, -29, -38, 71, -22, -4, 20, -44, 52, -46, -38, -59, 78, -33, -1, -15, 74, -64, 60, -45, -49, -11, 66, 48, -35, -20, 28, 59, -33, -15, -36, -1, -48, 7, -33, -46, 46, -34, 47, -24, 80, 36, -50, -17, -2, 13, 27, -40, -46, 0, 27, -55, -33, -16, 48, 67, -51, 48, -60, 69, 0, 55, 54, -37, -18, -10, 60, 45, -19, -106, 42, -66, -25, 49, -10, 21, -22, -42, 62, 25, 65, -47, -77, -36, 21, -9, -52, 26, -56, -17, -50, 16, -6, -46, -26, 52, -2, -61, 36, 48, 5, -95, -57, -41, -46, 13, -28, -7, -40, 44, 1, -17, 65, -31, 0, -7, 65, 21, -48, 30, -102, -64, -16, -48, -22, -39, -30, -31, 37, 4, -19, -7, 34, -14, -19, 24, -32, 59, 2, -3, -89, 32, -31, -52, -62, -48, -96, 25, -4, 4, 30, -63, -9, -62, -45, 32, 27, -30, -2, 25, -6, -86, 6, -36, -32, -83, -15, 58, -38, -54, -34, -106, -38, 66, -15, 14, 8, -10, 29, -29, 21, 54, -33, -10, -45, 67, -39, -34, -17, 31, -94, -2, -48, -52, -43, 16, 57, -65, 54, 8, 66, 32, 15, -81, -28, 28, -43, 61, -38, 0, -18, -21, 48, 9, 53, 96, -51, 20, 36, -50, -19, -20, -27, -30, -8, -25, 31, 57, 2, -17, -55, 51, -4, -56, 23, -10, -12, -9, -33, -50, 59, -52, 31, -58, -4, -24, -4, 39, -31, 61, -55, -23, 40, -10, 20, 46, -43, -75, -14, 8, 7, -76, -51, 48, 14, -9, -18, -3, 48, 52, -31, 45, 24, -45, -3, -38, 20, 19, 21, -32, 0, -35, 0, 61, -43, -51, -18, 20, -62, 1, 51, -23, -4, -58, -28, -30, -10, -62, -64, 24, -3, 34, 76, -9, 9, 1, -21, -34, 36, -60, 3, -13, -50, 20, 28, 48, 16, 4, 25, 7, 16, 23, -53, -2, 5, -49, -5, 16, 66, 45, 11, -21, 8, 19, 12, 53, 13, 26, 39, 49, 46, 58, 30, -15, -66, -23, -22, 4, -35, -36, 7, 6, 29, 21, 73, 8, 8, 25, 41, 45, -1, 58, -2, 5, 30, -11, 69, 38, 18, 8, -66, 4, 13, -4, 82, 17, -72, -66, -62, -40, -26, 54, -58, 60, 44, 20, 33, -13, -28, -61, -6, -27, 14, -56, 16, -7, 0, 8, 78, 33, 63, -72, -30, 63, -40, 59, -13, 24, -48, 20, -54, -5, 0, 19, 53, 1, -8, 24, -29, -35, 20, 20, 41, 52, -67, -69, 8, 51, -9, -58, 1, -44, -42, 29, 63, 26, 15, 5, 38, -36, 48, 47, 11, -29, -41, 52, 65, -10, 37, 52, 3, 57, -63, 9, -15, 39, 56, 50, 6, -25, 31, -1, 73, 43, 16, -48, 71, -57, -48, 40, 29, 57, 8, -40, 9, 50, -42, -44, -28, -54, 39, -36, -15, -41, 37, 29, -51, -60, 5, 7, -58, -23, -40, -45, 57, 51, 60, 17, 38, 47, -43, 37, 16, -21, 50, 50, 10, -37, -23, 4, -4, -43, -55, -51, -4, -29, -2, 5, 41, -30, 49, 7, -5, -43, 18, -18, -15, -52, 10, -57, 12, 7, 33, 19, -20, 22, 32, 26, -32, -51, 29, -7, -34, 47, -42, 11, -29, 21, -50, -20, -70, 47, -8, -61, 3, 33, 51, -15, -36, 51, -20, 24, -49, 35, -9, -47, -9, -9, 12, -21, -9, 50, -55, -11, 28, -24, 53, -15, -11, -48, -26, -90, -54, -33, -43, -11, 41, -29, 8, -28, -21, 1, -77, -41, -32, -2, 51, -12, 46, -37, -39, -29, -49, 38, 6, -55, -26, -70, -25, -23, -5, 13, -58, -16, 55, -47, -17, -41, 20, 16, -30, -41, 8, 5, -82, -61, 30, -18, 72, -47, -10, 55, -100, -22, -2, 22, -11, 40, 24, 56, -58, -16, -71, 39, 35, -97, -37, 32, -29, -31, -1, 50, 12, -6, -92, -32, -64, 30, -58, 10, -12, -49, -16, 33, -100, -37, -81, 8, 1, -40, -77, 25, 50, -7, 6, 13, -36, -38, 39, -34, 68, 52, -10, 62, 45, 32, -72, -31, -20, -54, -39, -26, -38, -50, 27, 50, 22, 41, 37, 57, 42, 2, -99, -3, 50, 33, -43, 58, 26, -24, -59, -53, 43, 38, -26, 10, -60, -19, 9, 5, -41, 32, -15, -32, -19, 76, 30, 61, 20, 59, -64, 16, 66, -10, 10, -32, 52, -35, -23, -4, -20, -47, 16, 54, 15, 44, 13, -56, 44, -25, -55, 5, -16, -34, -46, 24, 34, -30, -34, -29, 1, -54, -2, 5, 62, 25, -56, -7, 30, 15, 69, 29, -8, 80, 39, -19, 57, -23, 6, 29, 74, 76, -45, 69, 62, 51, 63, -64, 62, 2, 17, 5, 21, 6, 35, -46, -32, -8, -8, 25, -40, 39, -17, -19, -49, 19, 31, 66, 4, 43, 58, -26, 3, 11, -43, 13, -72, 58, 52, -41, -7, -33, 55, 2, -94, -27, -83, 73, -57, -11, 26, -27, -27, -67, -10, -2, -9, -76, 38, 48, 2, -36, -25, -70, 27, -30, 53, 18, 45, -31, -97, 2, -37, -30, 3, -38, -72, -49, -32, 49, -39, 55, 37, 28, -14, -87, -22, -38, -32, -57, -42, -44, -14, -64, -23, -9, 20, -38, -29, -16, 23, 7, -3, 1, 35, 2, -69, -50, -51, 8, -20, -11, 7, 13, -94, 31, -41, -25, -13, -12, -24, -3, -57, 20, 4, 72, 11, -53, -5, 37, -79, 61, 20, 7, -24, -38, -11, -22, 37, -4, 21, 19, -30, -55, -31, 17, -108, 68, 40, -12, 17, -12, -51, -91, -5, -52, -59, 3, 32, -21, -55, 12, -17, -2, -98, -61, 5, 38, -20, 12, -9, 52, -9, 58, -53, -28, -12, 52, -95, 17, -7, -36, 8, -5, -25, -75, 12, -8, 41, -58, -33, -89, -61, 43, 20, 43, -32, -32, -3, 3, -18, 3, 13, 13, 53, 9, -7, -24, 51, -3, -2, 45, 31, -50, -17, 29, -43, -44, -22, -22, 17, 2, 38, -99, -42, 17, -11, -28, -62, 53, -50, -23, -4, 67, -23, -7, -42, -12, -24, 24, 66, 48, -10, -7, 53, -89, 33, 6, 28, 7, -14, 70, -46, 35, -33, 24, 42, -29, 59, 18, 49, 44, -21, 22, 53, -30, 50, 77, 61, 45, 19, 42, -1, 18, -108, 27, 39, -35, 19, -23, -12, 14, -2, -4, 46, -25, 44, -82, 22, 41, 30, 65, -12, -43, -86, 39, 50, -20, 7, 64, 18, -15, 36, 51, 12, 26, -68, 40, 48, 25, 42, 33, -13, -14, -32, 53, -48, 47, 65, -11, 23, -21, -2, -80, 67, 29, -5, 7, -11, 28, 48, -21, -5, 12, -54, -39, 5, -5, -62, 39, 63, -32, 61, -56, 1, 12, 54, 22, 38, -54, -50, 13, 95, 50, -51, -26, 22, -71, -1, -2, -52, -18, -49, 63, -37, -55, -2, -6, -64, -9, 26, 23, -49, 33, 28, -42, 55, -46, -56, 68, -67, -53, 30, -85, 66, -17, 31, -49, 13, -15, 43, 27, -37, -19, 77, 13, 73, -59, -9, -33, -3, -37, 78, -47, -72, 23, -5, -50, 33, -57, -50, -60, -37, -4, 41, 9, 58, 22, 83, 55, 34, -33, -71, 56, -17, -49, -45, 47, 32, -67, -31, -60, -57, 35, 62, 27, -45, -51, 14, 31, 49, -43, 37, 46, 58, 16, 11, -52, -53, 75, -2, -29, -65, 6, 33, -38, -26, -17, 32, 56, 2, -40, 6, -42, -64, 50, 73, 31, 51, 3, 1, 24, 36, -106, -1, -5, -2, 35, -26, -29, 53, 24, -40, -11, -38, 39, -10, 52, 43, -43, 5, 65, 12, -59, -73, 18, -49, 46, 63, 36, 39, -7, -46, -6, -6, -33, -20, -25, 61, 26, -34, -22, -45, -61, 12, -20, -53, -55, -67, 38, 20, -43, -11, 26, -20, -72, 4, -63, 51, -40, -14, 23, 27, -95, -57, -42, 58, 3, -27, 23, 24, -21, 28, 61, 46, 39, 39, 28, 18, 6, -73, 37, 48, 3, 16, -34, -32, 20, 31, -34, -24, 29, -39, -9, -26, -14, 35, 72, 52, -62, -23, -29, 35, -1, 55, 13, -1, -38, -10, 47, -22, -17, -29, -61, -20, 12, -54, 56, -71, -65, -34, -8, 36, -41, -48, 41, 50, 23, 17, -22, 62, -43, -9, 13, 62, 19, 40, 3, -13, 55, -23, 37, 26, -14, -56, -62, 65, -16, 56, -8, -57, 38, 3, -53, -5, -28, -13, -41, 38, -48, 20, 35, -59, -89, -18, -52, 70, 67, -40, -3, 8, 51, -60, -35, 8, -24, 5, -63, 5, 26, -25, -17, -56, -46, -23, -5, 4, -53, 36, -30, -18, -22, -28, -6, -43, 4, -10, -68, -20, 23, -54, 23, 39, -44, -47, 20, 47, -46, 24, -25, 39, -59, 24, 27, -61, -29, 10, 22, 48, 57, 10, 22, 44, 26, -3, 19, 46, -8, 49, 41, 47, 31, -9, -29, -26, -48, 25, -12, 77, -12, -10, 6, -45, 48, 5, -27, -40, -31, 25, -55, 14, -9, -55, 26, 41, -46, 65, -35, -58, 0, 50, -10, 16, -52, 26, -13, 75, 37, 50, -4, 61, -49, -61, 13, 28, 42, 33, -39, 32, -4, -7, -52, 45, 41, 4, 54, 0, -10, -25, 48, -14, 36, -53, -10, -17, -46, -41, -21, 10, -13, -33, -38, -29, 2, -32, -5, 45, -57, 60, 51, -17, -35, -24, -59, -39, 9, -16, 62, -2, -24, 30, 51, -26, -22, -39, 33, 21, -6, -30, 43, -8, -50, 39, 1, -43, 17, 17, -3, 37, 16, 32, 8, -55, 47, -55, 60, -35, 20, 58, 57, -63, -65, 50, -20, -27, 15, 21, 44, 23, 14, 38, -40, 37, -37, -39, -38, -9, 33, -18, 58, 32, 45, -44, 5, -89, -19, 19, -6, -65, 27, 60, -47, -11, -40, 35, -40, 23, -47, 2, -10, -39, -11, -15, -29, 25, 45, 79, -13, -40, 26, 14, 17, 50, -31, -5, -29, 6, 6, 16, -35, 52, 37, -88, 22, -30, -92, -34, 36, -59, -17, 27, 7, -18, 57, 36, -79, -111, 10, -5, -6, -30, 14, -46, 62, -2, 29, 41, -42, 12, 0, 39, 0, 16, 2, 33, -8, 66, -52, -33, -8, -25, -44, -5, -16, -14, -51, 34, -5, -21, -25, -49, -13, 40, 40, -84, -65, 28, 3, 23, 28, -75, -36, -37, -27, 64, 33, -14, 70, 24, -15, -18, 69, 46, -85, 61, 65, 49, -14, 30, -71, 3, -11, -32, -39, -14, -69, 9, -53, 61, -8, -19, 2, 27, 39, 27, -41, 1, 14, -42, 51, 2, 21, 27, 55, -14, -11, 56, 57, 39, 6, -24, -95, 15, 29, -40, 73, 24, 36, -2, -62, 63, 16, -37, -30, -77, 36, -59, -25, -28, -49, -17, -21, 67, 2, 13, -25, 44, -47, 53, 29, 18, 0, 34, -46, 34, 61, 6, 35, -53, -54, 29, -26, 26, 46, 33, 4, -5, -60, 7, 68, -24, -46, 78, 25, 64, -30, 27, 49, -22, -58, 43, -23, 5, -51, -5, -47, 80, 65, 14, -37, 45, 42, 34, 17, 68, -58, 82, 45, -27, 1, -86, -1, 53, 51, 29, -52, -12, -47, 1, 31, -55, 21, -44, -12, -2, 1, 41, -53, 23, 12, 84, 16, 39, 44, -50, -6, 47, 15, 53, 6, -10, -1, -75, -30, -41, 53, -112, 54, -18, -18, 56, -6, -19, -85, -44, 57, 6, -18, 38, -15, 32, -31, 39, -26, -22, 2, 19, -27, 48, -48, -63, -61, -24, -20, 17, 5, -33, -11, 17, -53, -66, 15, -51, 47, 45, -84, 24, 2, -16, 6, -60, -88, -85, 37, 8, -35, -48, -95, -58, -2, -6, -30, -49, 3, -97, 33, 29, 3, -61, 51, 3, 17, -22, 15, -61, -37, 4, -50, 53, 17, 32, -23, -38, -9, -17, 40, -7, 37, 41, -75, -61, 15, 17, -66, 1, -10, -50, -25, -70, -17, -36, -35, -30, -20, 64, 13, -11, -49, 60, -24, -26, 8, -15, -5, 6, -85, 26, -40, 0, -26, -27, 63, 28, -38, 65, -8, 27, 55, -33, -57, -33, -53, 46, -25, -73, -13, 51, -73, -46, 54, 43, -79, -45, -44, -6, -24, -5, -30, 28, -43, -24, -10, 30, 19, -35, -10, -48, -32, 45, 13, -15, 43, -44, -37, -51, 54, 22, 43, -10, 27, -5, 12, -7, 8, -35, -44, -48, 27, 5, -53, 23, 64, -56, 25, -85, -20, 46, 16, 62, -12, 46, -6, -16, 48, -72, 0, -4, 16, 65, 35, -50, -70, 17, 59, -49, 61, 0, -17, -52, 60, 6, 16, 36, -40, 23, 69, 50, 36, -51, -13, 0, 50, 43, 20, -35, 3, -93, -39, 12, 9, -76, 40, -57, 25, -32, -26, -60, -109, -42, 64, -38, 37, -35, -86, 53, 26, 22, 50, -9, -20, -27, 9, -24, 2, -41, 14, -1, -15, -11, -4, 19, 27, 21, -24, -38, -1, 23, -14, 41, 13, 58, -58, -15, -59, -32, 34, -6, -45, 32, 14, -39, 46, -1, 43, -59, 20, -25, 43, -91, -22, 16, -29, 49, 14, -62, 4, -61, -93, -11, 21, -22, -86, 3, -9, -15, -65, 12, -12, -19, -16, -85, 28, -2, -9, -69, 61, -5, 3, 61, -54, -5, 59, 3, -4, -47, 60, -33, -50, 62, -38, 15, -25, -2, -95, 15, 65, 29, -1, 54, -16, -19, -32, -59, 9, -49, 42, -39, -36, 13, -14, 35, -32, -13, -49, 45, 28, 55, -6, 9, -3, 23, 8, -29, -48, -49, -32, -21, -18, 64, -26, -11, 46, -68, 9, -43, -40, 50, 29, 21, 57, 12, -43, 24, -30, -44, -47, -54, 9, 8, -12, -86, -26, -38, -43, -14, 6, 4, -58, 54, 36, 35, 52, 26, -46, 58, 39, 19, 37, 54, -62, -65, -62, -54, 44, -2, 21, 22, 53, 35, 55, -21, 23, -8, -34, -55, -5, 12, -20, 55, 19, 51, 45, -3, 46, 40, -69, -45, 41, 42, -6, -12, -46, -58, -11, 10, -54, 7, -10, 23, -60, -18, -52, -35, 50, -59, 1, 21, 41, -38, -30, 35, -8, 8, 58, 58, 35, -55, -24, -18, -22, -8, -65, 17, -49, -50, 11, -10, 28, -43, -38, -6, 52, -45, -41, -19, -37, 44, 8, -18, -46, 66, -47, -61, 4, -13, -16, 47, -47, -26, 14, -43, 80, -25, 78, -70, -62, -66, -33, -11, -54, -38, -45, -97, -8, -42, 11, -39, 36, 67, -41, -29, -16, 44, -66, -34, -68, -31, 16, 5, -29, 50, 23, 45, -34, 71, 17, 48, -62, 17, -26, -60, -77, -1, -2, -22, -3, -97, 10, 52, -30, -10, 31, 45, 9, 47, 49, 36, -83, 20, 42, -50, 22, 29, -70, -78, 57, -2, -4, -5, -44, -90, -15, 28, -28, -29, 17, -3, 4, -97, 9, -6, 42, -17, -34, 57, -1, -47, -18, 34, -110, -55, 16, 61, -16, -26, -64, -43, 21, -3, -47, 65, -42, -10, 62, 9, -25, -14, -10, -39, 61, -109, 53, -56, 45, -41, -5, 8, -71, -16, 18, 68, -10, -51, -44, -23, -20, 54, -98, 67, 13, 25, -47, 25, -38, -64, -63, -30, 38, -3, -63, -21, -21, -94, -28, 56, 51, -93, 0, 65, -17, -58, -55, -36, -92, -48, 1, 9, -31, 35, -101, -81, -41, 3, 42, 26, 0, 9, -8, 17, 59, -16, 23, -98, -8, -16, -25, -14, 49, -57, 40, -35, -8, 34, 21, 39, -65, -15, 60, 45, -51, 41, -19, -28, -24, -30, 51, -14, -36, -78, 3, 57, -29, 51, 23, 44, 40, -50, 52, -37, -7, 5, -14, -47, -52, -45, 18, -24, -38, -33, -2, 71, 27, 53, -57, -38, -18, 65, -2, 50, 21, 24, 38, 69, 35, -52, -12, -70, -57, -64, 27, 37, -58, 8, -71, -51, -10, 63, 20, 13, -35, -42, -8, 31, -6, 1, 11, -21, 26, 65, -4, -36, -15, -46, -44, -60, -43, 86, 17, 17, 30, -44, 19, -19, 31, -39, -56, 49, -8, 44, 13, -67, 19, 31, 15, -50, -67, -60, 38, -54, -36, -11, 61, 55, -5, -1, 40, -23, 42, 3, 1, -78, 40, -5, -66, 44, -2, -23, 36, 31, -34, -42, 12, -15, -8, 63, 38, 40, 55, -27, 8, 4, -59, -107, 39, -1, 43, -37, 1, -25, -77, -57, -21, -60, -53, -24, 36, 30, 43, -76, -13, 9, -92, -64, 50, 32, -111, 14, 37, 13, -69, -70, -46, -100, -30, -9, -2, -49, 4, 34, 27, 21, -53, -5, 33, -80, 38, -19, -8, -33, -13, 56, 28, 25, -48, 4, 55, 29, -29, -7, -63, -40, -14, -57, 16, 19, 74, -40, -45, 44, -1, 47, 54, -6, 25, 22, 8, -15, -14, -23, -62, -33, -48, -32, -41, -27, -56, -73, -39, -53, 23, 49, -9, 1, -68, -32, -102, -14, 2, -60, -9, 29, -4, 19, -4, -13, -15, -48, 57, -25, 26, -66, -49, -10, 6, -85, 49, -3, -16, 28, 5, -24, -99, 17, -5, 9, -53, -38, -72, -14, 43, -66, -28, -27, -10, 55, 47, 6, -40, 57, 12, -51, -16, -73, 50, 36, -60, -9, -16, -3, -66, 68, -6, 54, -76, 19, 14, 45, 10, 24, -3, 73, -58, 55, -53, 56, -40, -17, -54, -30, 34, 32, -45, -25, 16, 46, 15, -31, 62, 31, -30, -11, -19, 46, 41, -2, 8, -8, 19, 34, -32, 12, -54, -70, -27, 101, 22, 34, -13, -64, -29, -56, -43, 50, -23, -78, -38, 28, -27, -43, -39, -69, 56, -17, -38, 26, -45, 46, -56, 47, 5, -57, -60, -43, 31, 5, 32, -24, 9, -11, -70, 0, 10, -4, 13, 53, 5, -75, 53, -14, 15, -62, 48, -42, -42, -20, -44, -21, -36, -41, -120, 20, 2, -29, -8, 2, -27, -45, 70, 0, -55, 49, 48, 48, 14, -9, 23, -2, -6, -28, 41, -84, 22, -59, 46, 2, -3, -20, 4, -3, 0, -38, -117, 0, -51, -45, 36, -29, 29, -72, -47, 1, 30, 51, 19, -8, -64, 45, -48, -31, -4, -77, 20, -94, 14, 46, 28, 3, -14, -22, -59, 59, 24, -62, -88, -39, -11, -33, -57, -8, -72, -54, -58, 36, 54, 36, -66, 57, -37, 38, 61, -50, 3, 29, 55, 8, 35, -23, -30, -81, 5, 54, -20, -41, 36, -29, -55, 33, -42, 34, 10, -10, -66, 53, -17, 5, 57, 2, -36, 11, 44, 59, -40, 9, -3, 35, 7, 15, 2, 22, -54, -109, -45, -16, -30, 23, -50, -14, -87, -27, -38, -19, -68, 38, -47, -34, 40, -60, -42, -84, -6, 50, -7, -45, -44, 24, 58, -2, 40, -49, 68, -2, 42, 36, -17, -25, -21, -8, -46, -29, -40, -21, 43, 49, -39, 10, -33, -10, 3, 1, 66, -59, 56, -61, -10, -56, -10, 23, 19, 60, 22, -5, -26, -49, -7, -34, 0, 41, -88, 58, 2, -10, -120, -17, -4, 3, 16, -7, -61, 59, 0, -20, 52, -29, 72, -71, 17, 21, -64, -31, 45, -68, 51, -19, 54, 58, 44, 70, -46, 4, 11, 68, 42, -5, -45, -34, 66, -32, 66, -18, -5, 21, 19, 41, -24, 100, 68, -39, 7, 73, -49, 16, 36, -39, 17, -16, -29, -48, -41, -36, -13, -2, -105, -56, 1, -11, 21, 61, 55, -41, 7, 75, -11, -82, 33, -9, 24, 55, -56, 15, 32, -35, -44, 11, 22, -101, -36, -53, 20, -48, 48, -3, 3, 64, -92, 2, 32, 18, -4, 58, -47, -45, -59, -28, -108, -28, 35, 20, -33, -52, -33, -71, 25, 15, -56, 50, -56, 26, -4, -36, -20, 70, -54, -6, -41, 26, -86, -34, -45, -10, -23, 25, 51, 65, -64, -37, 24, -90, 58, 48, 57, 47, -56, -5, -28, -46, -45, 66, -29, -65, -42, -102, -30, 12, 3, -38, -4, 20, 21, -14, 42, 26, -108, 15, 31, 16, -37, -55, 19, 6, 74, 10, 40, 40, 75, 31, -32, 10, 47, -7, 42, -7, 40, 24, -43, 49, 50, -61, 49, -44, -18, -45, 4, -14, -48, -36, 1, -19, 10, 10, -66, 70, 74, -43, 64, 35, -14, 27, 2, -7, 48, 29, 66, 8, -7, -101, -22, 29, 38, -63, -35, 29, -47, 47, 25, 15, -58, -40, 71, -34, 30, 40, 23, 34, -10, -32, 49, -20, -37, -9, -18, -36, -50, 17, 2, -105, -20, -44, -52, 53, 21, -16, 61, 42, 17, -17, -54, 11, -9, 13, 0, 43, 14, 23, -28, -67, -18, -53, 4, 15, -53, -18, 51, 27, -7, -24, -52, -64, -3, -40, -36, 37, -57, 4, 56, -56, -23, -32, 62, -34, -49, 7, -9, 60, -70, 35, -3, -14, 61, -31, 29, -60, -27, -10, 9, 31, 17, 51, -28, -28, 6, 43, 4, -12, 45, -54, -40, 10, -40, 1, 41, 57, -13, 17, 65, -9, 34, 22, -18, -81, 13, 1, -12, 18, 8, 23, 32, -64, -29, 21, 57, -93, 26, 8, -12, 13, -15, -47, -50, 18, 11, -26, -41, -59, 0, -28, -22, -41, 42, -19, -79, -119, -39, -81, 11, -103, 29, -53, -58, 29, -23, -11, 16, -53, -68, -65, 45, -60, 10, 6, 21, 15, -69, -57, 8, -40, -58, 37, 12, -14, 47, -50, 13, -93, 66, 32, -56, 22, -41, 4, 60, -17, -50, -69, 63, -75, -4, 22, -3, -29, -50, -62, 21, -5, 28, -34, 48, 29, -13, -27, -56, 53, 47, 13, -35, -105, -47, -31, -26, -21, 37, 31, 60, -2, 21, 62, -22, -18, 40, -29, -2, 19, -63, 43, 74, 30, -29, -35, 33, -28, 10, 21, -29, -48, 16, -35, -103, -78, 32, -42, 53, -63, 62, -56, -61, 36, 50, -43, 27, 18, 57, -34, -27, 41, 10, -71, 22, 49, -56, -31, 63, -4, -16, 43, -20, -66, -38, -27, -29, 19, 0, 50, -23, 6, -16, -22, -3, -33, -57, 60, 54, 38, 52, -79, -2, 30, 31, -18, 33, 69, -4, 5, 0, 55, 5, -24, -37, -71, -14, 45, -43, -26, -28, -10, -6, -62, 14, -26, 52, -40, -66, -31, 9, -78, -54, 16, 25, 60, 19, -39, -42, 39, 13, -55, -18, -6, 0, -13, 28, 19, -35, 5, 32, -62, -49, 10, 53, -54, -22, -60, -19, 49, -53, 51, -16, -20, -30, -23, 28, 21, -13, -47, 50, 5, -84, -6, -18, -53, -24, -31, 25, -44, -28, 27, -23, -55, 63, -12, 51, -69, 13, -50, -24, -25, 27, 19, -51, -74, -46, 18, 19, 16, -42, -114, 54, 21, -1, 29, -64, 14, 0, 23, 49, -43, 14, -47, -48, 41, 10, 6, -25, -81, -17, -18, 44, 39, 0, 75, 18, -67, 12, -64, 54, 41, 47, -25, -36, 49, -71, -47, 35, -45, -81, -8, -10, 11, -40, -58, -9, 22, -7, 6, -42, 9, -21, 17, -38, 6, 60, 66, -9, -24, -39, -28, -47, -14, -29, -91, -8, -68, -77, -11, -2, 45, -79, 42, -16, 4, 18, 37, -72, 25, 49, -30, 37, -44, -26, 3, 44, -38, -12, -6, -16, 49, 60, -16, -60, 44, 21, -64, 33, -37, -89, -7, 55, -31, 9, -2, -18, 13, -46, 19, -59, -4, 7, 31, -57, 57, 6, -36, -39, 72, 48, -3, -27, -34, -36, -67, -35, -42, -8, 0, 38, 58, 2, -32, -25, 47, -49, -58, -42, 68, 12, 66, 16, -22, 21, 1, -30, 23, 24, 16, 47, -13, 36, -45, 21, -28, -47, 18, 75, 54, 34, 23, -13, -20, 5, -6, 15, -48, 0, -26, 77, 37, 48, 5, -56, -18, -25, 54, 74, -71, 22, -12, 9, 16, 37, -10, 5, 23, 77, -5, -49, 29, 59, 63, -4, 22, -5, 18, 17, 81, 22, -22, 2, -61, 14, -5, -62, 47, -18, -24, 26, 18, 50, -47, -8, 77, 58, -32, 69, -34, 25, -49, -43, -39, -44, 7, 68, -37, -32, -27, -24, 51, -3, 23, -69, 14, 27, 5, -70, 68, 32, 13, -40, 55, -39, 10, 49, -63, 33, -54, 69, 3, 39, -31, 16, -16, -17, -44, -7, -39, 8, -10, -8, 55, 12, 65, 23, 15, 21, -13, -43, -24, -50, -73, -52, 14, 3, -6, -25, -14, -4, 17, 22, -93, 29, -83, 66, 17, -36, 38, 42, -37, -16, 55, -33, -19, 1, -3, 38, 12, 53, 37, -45, -3, 26, -61, 37, 71, -55, -24, -44, 6, 18, 66, -37, -14, -6, -95, -3, 67, 61, -39, -7, 19, 9, 21, 11, -45, -83, 8, 38, -50, -13, -16, 7, -74, 27, -70, 58, 37, -38, -47, -17, -6, -9, 65, -14, -105, -9, -48, 21, -14, 42, 30, 42, 39, 11, 10, 31, -55, -108, 61, 3, 44, 36, 47, -59, -71, -5, -13, -22, -10, -36, -70, -12, 72, -45, -28, 53, -62, -20, 13, 38, 18, -67, 9, 46, -43, -52, 15, -1, 18, -27, 58, -60, 16, 42, 48, 32, -56, 17, -96, -24, 27, -49, -43, 40, 44, 64, 23, 16, -103, 65, -30, 1, 62, -9, 29, -59, -3, 4, 11, 25, -36, -69, -46, 29, -4, 30, 53, -43, 53, -53, -47, 1, -33, 52, 16, -32, -48, 36, 46, 20, -27, -25, -30, -2, 33, 5, -35, -56, -23, 30, -52, 51, 22, -1, 32, 63, 25, -18, -9, 38, -21, -45, -27, 40, -69, -8, 0, -64, 51, -29, 66, -57, -75, 16, -56, 52, -46, 40, -17, 40, 17, -48, -54, -37, 43, -72, 53, -57, -29, -12, -66, -65, 12, 80, 31, -14, -64, -7, -26, 8, 65, -47, 61, -64, -28, 49, -11, 28, 67, 14, -32, 49, 16, -42, -22, 36, 2, -64, 1, 32, 12, -36, 3, -6, -47, 69, -63, -40, -22, 30, -76, 48, 17, 11, -56, 55, -72, 6, -93, -48, -29, 23, 43, 64, 63, -51, -39, 67, 17, -89, 50, 27, 47, 61, 14, -40, -57, 76, 46, 25, -79, 60, -39, 32, 40, 16, 53, -52, -10, -27, -92, -51, 12, -31, 38, -9, -33, -41, 7, -46, 51, -42, -51, -3, 36, -32, -27, 83, -62, 4, -6, 4, -8, -44, -26, 3, -9, 10, 47, 56, 36, 51, 14, 20, -52, 7, -19, -14, 12, -37, 21, 54, -39, 43, -3, -23, 65, 10, -9, -19, -7, 37, -54, 57, -71, -14, 17, 53, -31, 65, 48, -33, 12, -9, 18, -22, 29, 34, 41, 27, 51, -70, 31, 39, 20, -61, 58, -45, 29, -7, -36, -73, 24, -26, 33, -2, -20, 12, 16, 38, 3, 26, 18, 15, -64, -50, -9, 60, 13, -70, 7, 54, 16, 30, 40, -47, 27, 13, 18, -2, -30, 52, -31, -95, 22, -58, -1, 7, 38, -74, 5, 17, -10, 2, -18, 21, -50, -12, -44, -29, -9, 56, -90, -8, -7, -31, 5, 65, 37, -23, 51, 33, -42, -55, -45, 12, -70, -22, -32, 1, 6, -91, 23, 40, 8, -5, -19, 10, -67, -45, -7, -43, -45, 57, 1, -5, -11, -16, -17, -35, -52, -26, -45, 7, -39, -18, -5, 21, 24, -42, -94, -61, -19, -5, -19, 38, -40, 46, 30, 44, -83, 32, -23, -52, -61, -40, -16, 48, 0, -22, 34, 61, -7, 17, -60, -53, 58, -33, 34, -92, 46, -46, -85, -22, 21, 44, -20, 54, 34, -42, 32, -40, 4, 9, -89, 12, -71, 35, -39, 43, -52, -13, 20, -54, -54, -31, -9, 24, -43, -67, 42, 24, 16, 40, 21, 23, -20, -6, 34, 43, -35, 2, 47, 11, 46, 12, -47, 23, -15, 14, 39, -10, -68, 12, -38, -31, 60, 69, 12, 3, 1, 47, -4, -33, -7, -16, 55, 34, 44, 43, 22, 55, 23, 25, 18, -19, -31, -12, -91, -55, -3, 54, -70, 64, -66, -13, 33, -48, 54, 15, -54, 20, 55, -14, 44, -57, 35, 18, 7, 16, -51, -55, 49, -64, -26, -10, -21, 30, 14, 0, -35, -17, 9, 8, 38, 4, -57, 34, 29, -51, 35, 6, 10, -49, 22, -10, 49, -11, -45, 13, -48, -9, -6, -79, -63, 30, 38, 46, -25, -8, -54, -5, -94, 15, 17, -23, -46, -7, 34, -46, -18, 48, 5, -17, 3, 1, 6, 73, 31, -14, -62, 54, -28, 51, -44, 49, -47, -62, 54, -37, -3, 82, 38, -56, -9, -21, -36, 27, -43, 67, 2, 9, 46, -48, -36, -63, 45, -21, -42, 10, -7, 11, -17, 12, -46, 48, -34, -44, -16, -32, 47, -37, 13, 44, 55, -7, -46, 68, 59, 37, -20, -31, -1, -9, 64, -37, 68, -34, -18, 18, 9, 51, -55, 41, 64, -4, 46, 15, 32, -12, -82, -52, -34, -47, -21, 45, -58, 60, -94, -34, -42, 30, -78, 28, -10, -12, 3, 39, -32, 3, -53, 16, 64, -59, -36, 23, -6, 52, 20, 5, -32, -10, -81, 44, -45, 10, 42, -6, -23, 20, -5, 8, -34, -3, 8, 8, -13, 26, 53, -19, 10, -65, 61, -62, 2, -32, -25, 2, 15, 0, -41, -22, 15, -28, -68, -47, 15, -41, -52, 23, -39, 23, -2, -9, 19, -22, 8, 10, -15, -58, -28, 19, 5, -86, 57, -7, -29, 10, -15, -79, -100, -4, -38, -9, -34, 9, 7, 45, 80, -28, 27, 56, -87, 8, 8, -25, -32, -48, -28, 45, 14, -42, -21, -24, 26, -10, 31, -53, 55, -1, 43, -41, 6, -35, 14, 19, -19, 20, -20, -56, 23, 14, -30, 76, -95, 12, -84, 73, 7, 41, -57, 50, 27, 1, -44, 41, 52, -85, 39, 8, -22, 30, -43, -6, -14, 70, -37, -30, 52, 8, -40, -12, -29, -58, 22, -23, -21, -10, -6, -32, -38, 26, -9, -25, 46, 5, 4, 32, -12, -54, -39, 35, 41, 0, -53, -71, -8, 67, -12, 24, 27, 37, -6, -59, -32, 27, 57, 10, 21, 24, 2, -42, 24, 16, -46, -56, 0, -52, 54, -35, -67, -98, -49, 29, -62, -40, 2, -73, -19, 66, -18, -21, -56, -41, 47, 40, 46, -7, 39, 26, -50, 20, -16, -7, -5, -65, -16, -9, 60, -55, 27, 37, -58, -73, 56, -41, 49, 70, -15, 6, -26, -52, -34, 37, -100, 49, 19, 5, 32, 18, -28, 51, 19, 9, -78, -51, -47, -54, -84, 12, -34, -16, 77, -51, -11, -127, -31, 58, 34, 64, 36, -28, -14, 23, -30, 27, 44, -7, -40, 9, -36, 24, -41, -10, 4, 11, 20, -25, 7, -15, -58, -43, 58, -22, 0, 9, 55, -5, -8, 52, 37, -14, -33, 56, 20, -40, 58, 27, -33, 15, 43, -61, 39, 15, 50, 18, 35, -23, -41, 14, -60, 48, 65, 21, 12, 7, -47, -7, 60, -44, 58, -34, 25, -13, -39, -17, -11, 83, 26, -57, 80, 31, 37, -5, 34, 51, -16, 53, -9, -36, 8, -36, 39, -11, -44, -2, 14, -87, 26, -35, 51, -40, 35, 63, 54, 30, 25, -54, -26, 29, -72, -23, 71, 51, -24, 44, -44, -51, 10, -27, 16, -58, -50, 67, -32, 6, 12, -23, 24, -80, -53, 19, 53, -3, 39, 45, -31, 53, 67, -59, -50, -28, -12, -7, -55, 43, -13, -41, -14, 5, 61, 45, -11, 43, -12, 10, 39, 38, -2, -38, -2, -80, 43, -26, -37, -28, 30, -8, 28, -47, -56, -48, 28, -30, -68, 50, 23, -63, -17, 59, 26, -42, 10, -9, 23, 8, 20, 22, 28, -70, 3, 51, 28, -40, -18, -29, 32, -91, -4, 1, 33, 15, 39, 48, -13, -47, -32, 12, -23, 24, 24, -14, -53, 5, 46, 16, -69, 19, 2, -21, -58, -76, 61, -75, -66, 2, -10, -48, 37, -45, 63, -76, 33, -26, 13, 21, -92, -11, 17, -20, -20, 41, 3, 62, 55, 51, 10, 36, -112, 19, -38, 5, -47, 57, -35, 7, 48, -89, 48, -3, 28, -19, 20, -45, -18, 8, 35, 13, -34, -15, 44, -35, 62, 66, -30, 35, -55, -83, 43, 57, -29, 3, -4, -4, 40, 8, -81, -2, 34, 0, -17, 31, 25, -16, 18, -7, -1, 46, -76, -3, -29, -38, -84, -12, 47, -45, -16, 3, -15, 42, 33, 57, -55, 46, 20, 61, 50, -34, -22, 18, 4, -35, -7, 57, -68, 19, -3, 23, -35, 7, -8, -26, 52, 43, 76, 46, 62, 30, -46, -20, -38, -59, 52, -11, 49, 16, -58, 40, 49, 5, -42, 51, -6, -44, -24, 39, 16, -73, 28, -13, 19, -66, 34, 32, 14, -64, 9, -31, 43, -4, 3, -4, 12, -17, -41, -31, 41, -63, -27, 60, -9, -25, 0, 59, -21, 58, -16, 1, -14, -52, -17, -66, -56, 8, -62, 4, -12, -34, 22, -8, 19, -12, -37, -16, -61, -30, 75, -1, 27, -18, 6, 56, 24, 69, 67, 12, 43, 42, 1, 33, -14, -106, 33, 2, 32, 86, 7, -52, -116, 47, 16, -41, 25, 85, -77, -51, 67, 66, 10, 28, -70, 54, -56, 34, 61, 5, 1, 78, -29, -89, 15, 54, 60, 24, 9, 10, -32, -15, -32, 39, 69, 46, -17, 34, -42, 16, -41, -49, -16, -54, 36, -15, 85, -42, -8, 29, 30, -48, 6, 41, -13, -94, -36, -4, 8, -36, -15, 19, 33, -27, -4, -70, -16, -15, 54, 37, -31, 48, 32, 14, 41, -29, -16, 70, -71, 38, -60, -30, -63, 44, -65, 58, 57, -26, 2, -56, 17, 35, 41, -1, 1, -6, -39, -24, 5, 36, -7, 43, 56, -24, -47, -29, -51, 18, -37, 37, -33, 24, -41, 9, -49, 28, -31, 76, 33, -69, 73, -52, -39, -62, -48, -25, 11, -27, -46, -77, -8, 67, -28, 17, 33, -29, -66, 46, -18, -30, -63, -5, -50, -33, -34, -3, -42, -54, -83, 52, 56, -32, -26, 75, 17, -13, 2, -1, -6, -45, 40, -21, -101, -13, 13, -7, -5, -70, -6, 52, 45, -12, 64, 25, -110, 66, -67, -23, 1, 55, -30, 2, 12, -7, 10, -31, 56, -47, -36, 65, -31, -27, 19, -29, -77, 68, 29, -14, -18, 43, 35, 54, 42, -11, 42, -29, -29, 27, -75, 45, 20, -46, -24, 1, 58, -73, 32, 39, 3, -81, 20, 45, -59, 52, 68, -90, -64, 22, 17, -40, -63, -21, 36, 35, 4, -49, -15, -15, -36, -2, -66, 58, 32, 48, -68, -28, 40, -9, -29, 24, -2, -121, 12, -80, 44, 6, -43, -2, -68, 72, 10, -67, -15, -37, -4, 0, -20, 8, -64, -46, -49, 14, -97, 13, 7, -22, -9, 60, 30, 39, 15, 57, 4, -22, -15, -39, 44, -47, 29, 18, -102, 51, -86, -29, 39, 56, 11, -46, -11, -19, -4, -41, -45, 46, -79, 67, 69, 38, -62, 73, -24, -73, -6, 32, 34, -8, -55, -2, -21, 42, 42, -82, -111, 58, -38, -19, 51, 50, -2, 59, 54, -16, 80, 75, -13, 33, 23, 27, -5, -39, 28, -33, 10, -78, -46, -39, 45, -103, 52, -58, 2, -17, 21, -26, 21, 58, -72, 59, 67, 10, 10, -16, -17, 24, 61, 57, -28, 68, -24, -57, 41, -39, -30, 44, 46, -26, 11, -20, -40, -36, -29, 6, -3, -51, 13, 4, 69, -35, 37, -28, 43, -27, 45, 0, 75, 36, -40, -2, -7, 68, 25, -2, -13, -6, -32, -40, 14, -16, 20, 25, 63, -59, 67, -6, 34, 35, -39, -71, 49, 16, -14, -29, -48, -62, -14, 14, 22, 60, -37, -39, -11, 59, -39, -35, -9, -35, -29, 53, 56, -75, -52, 55, -35, -47, -9, -30, 47, -8, -26, -20, -39, 62, 43, 40, -67, -66, 48, 7, 55, 57, -56, 1, 50, 10, -52, 51, 46, -54, 7, 67, 30, -58, 2, -23, -15, -40, 18, 43, -7, 25, -19, -18, -22, 45, 7, 3, -67, -55, 39, 8, 25, 11, -18, -40, -77, 45, 12, 49, 58, -19, 34, -9, -35, -14, 18, -44, -3, -85, 12, -1, -12, 6, 10, -59, -102, -11, -71, 9, 12, 25, -70, 38, 36, 20, 46, 33, -21, 39, -111, 60, 62, -62, 38, 29, -31, 23, -41, -17, -7, -49, -43, 24, 25, -26, 63, 12, -18, 16, 34, -45, 15, 9, -41, -52, -46, 58, 61, 37, -69, -13, -73, -48, 34, -50, 80, 39, -54, -50, -32, 48, 11, -44, 44, 29, -51, -49, -54, -28, -59, -5, -34, 29, 87, -56, 10, 52, 30, -11, -12, 48, 27, -29, 30, 59, 41, 46, -67, -47, 42, -69, 33, -43, -20, -51, 28, 30, 19, -11, -41, -54, -75, 60, 9, 7, -14, -53, -46, 2, 45, -32, -24, -33, -86, 13, -47, 18, 4, 16, -54, 3, -43, -14, 28, -34, -28, -58, -63, 22, -47, -53, 24, -44, -42, -55, 13, 46, -50, 51, -22, -7, 15, 44, 44, -38, -21, 35, -108, 52, -45, 0, 5, -60, 37, -56, 4, -27, 8, 3, 7, -29, -55, -12, 54, 71, 47, 36, 81, -59, 24, 0, -77, 41, 40, -64, -56, -18, -25, 38, -24, -3, -7, -41, 30, 23, 8, -63, 17, 6, 17, 62, 31, -18, -60, -56, -23, -7, -26, 53, 79, 50, -68, -58, -58, -8, -35, -11, 19, -27, -27, -22, 27, 37, -42, 22, 24, 15, -34, 10, 33, 58, 30, 66, -59, -9, -36, -74, -40, 17, -57, -49, 50, 12, -23, 19, 7, -3, -71, 60, 62, -13, -53, -47, -104, 90, -7, 56, 23, 17, 3, -29, 72, -55, -15, -80, 51, 22, 58, 63, 3, -13, -24, -40, -34, 50, 23, 58, 29, -7, 3, 47, -18, -32, -9, -7, 12, 59, -12, 3, 12, -11, 56, 41, 75, -47, 16, -53, 72, 52, 8, -46, 58, -7, 24, 87, -39, -3, 10, -14, -6, 29, -12, 23, 84, -20, 42, -55, -98, -49, -33, 38, 85, -34, -55, -15, 4, -6, 13, 76, 62, 28, -58, 6, 69, -19, 67, 73, 66, 11, 74, -11, 42, 61, 25, 57, 25, -22, -35, 18, -70, 73, -47, 80, -17, 66, 23, 19, -56, -13, -13, -64, -5, 33, 44, 32, -41, -14, -11, 54, -19, 58, 22, -60, -70, 32, 14, -19, 67, 67, -61, -31, 6, 46, 28, 11, -58, 1, -35, -66, 20, -16, 57, 18, -32, -15, -54, -14, 39, -79, 8, -3, -52, -53, 13, 59, 13, 56, 69, 43, 45, 79, -99, -10, -64, 34, 76, 69, -20, 77, 18, -77, 78, 2, 66, 15, 53, 54, -23, 70, -40, -97, -26, 20, -88, 17, 81, 29, -10, 53, -35, 18, 63, 78, -31, 23, -94, 38, 30, 48, 31, -4, 70, -27, 97, 5, 77, -87, 48, 59, -20, 61, -17, 18, 53, 73, -20, 16, 63, 67, -69, -1, 33, 68, 64, -4, -89, -3, -20, 33, 6, 38, -23, 7, -23, 15, -10, -42, 45, -5, -21, 45, -26, 14, -40, -34, 2, 41, 49, -18, 5, -4, 10, 37, -41, -35, -16, -25, 12, -55, -88, 59, -25, -32, -17, 56, 56, -75, -2, 54, 2, -37, 29, -13, -24, 37, -27, 4, -87, 58, -13, 50, 17, 14, -57, 32, 56, -42, -8, -38, -3, 60, 58, -31, 29, 47, -89, 43, 44, 24, 4, -48, 32, -75, 27, -35, -48, -24, -2, -48, -63, -41, -22, -42, 19, -50, 33, -25, 42, -32, -3, -17, -42, -25, 9, -50, 55, 26, -85, 79, 76, 1, -43, -30, -31, -32, 7, 31, -28, -27, 30, -26, -72, -44, -108, -65, -13, 56, -59, -15, 45, -14, -36, 67, -97, 28, -49, -40, 29, 79, -83, -48, 72, -18, 46, -62, 76, 13, -9, 6, 23, -54, -6, -38, 21, -4, -25, -1, -10, -60, 3, -64, 11, 10, -43, 10, 29, 56, -18, 4, -51, -40, 15, -8, -46, -71, -2, 37, -55, -34, 7, 52, 43, 56, 7, -30, -25, 27, -8, 54, -47, 6, 42, 25, -49, -54, 26, 18, -34, -61, 0, 48, 26, 43, 44, 37, 4, -16, 23, -52, -60, 2, 32, -41, -70, -41, -27, -46, 41, 20, 55, -32, -7, 63, 6, 15, -52, -51, 29, 19, -48, 37, 15, 35, -17, -10, -8, 35, 13, 9, -46, -15, -58, 12, 38, -46, 6, 24, -7, -49, 6, -15, -48, -61, 0, 31, 8, -8, -42, -49, -47, 41, -19, -23, -19, 33, -10, 24, 25, -39, 11, -39, -36, -12, -13, -67, 44, -24, 65, 10, 38, -56, -32, -15, -77, 30, 22, -18, -25, 10, 46, 61, 23, -16, -78, 6, -95, -25, 80, -44, -59, -46, -52, 3, 1, -25, 38, -35, 67, 64, 38, 59, -56, 6, -55, 68, -106, 63, -29, 52, 51, 0, 51, 63, 48, -32, 17, 49, 5, 66, 14, -40, -70, 20, -7, -34, -24, 71, 67, 21, 26, 51, -9, -31, -16, -105, 20, -25, -61, 4, -2, -38, 3, 33, 37, -28, 88, 8, -52, -49, -27, 22, -25, -16, -24, 21, 2, 7, -45, -6, -20, 13, -23, 2, 59, 2, -8, 68, 26, 0, -35, 68, -13, 69, 17, 44, -58, 24, 54, 9, -64, -64, -87, -20, -72, 25, -41, -73, 47, -23, 30, -17, 36, -32, 40, 68, -26, -5, 18, 69, 82, -2, -13, -59, -4, -21, 19, 16, 47, -15, -6, 21, 12, -20, -99, -58, 9, -23, -63, -36, -15, 17, -12, 46, 41, 5, -49, -12, -47, -39, 13, -24, -5, -20, -82, 30, -18, -24, -9, -10, -45, -17, 8, 1, 7, -18, -11, -46, -56, -24, 70, -20, 6, -9, 6, 37, -23, 22, 61, 46, 4, 38, -46, 55, 41, 41, 10, 54, 40, 54, 0, -20, -55, -8, 44, -20, 28, 24, -58, -56, -41, -24, -27, -42, -18, 17, -66, -52, -47, 32, 40, -16, 27, -35, -36, -19, -48, -48, -21, -10, 10, 37, 42, 59, -6, 19, -54, 37, 75, 40, 1, -44, -58, 17, -73, -3, -41, 27, -45, 29, 30, 41, -57, -20, -13, 19, 32, 61, -39, -19, -42, -34, -38, 34, 21, -18, 25, 34, 17, 96, -6, 69, -10, 15, -14, 5, 44, 40, 45, 17, 8, -20, 52, -22, 2, 45, -45, 85, 74, -40, 40, 71, -34, 92, -31, -45, -57, 49, 6, 59, 46, 15, -72, 14, -30, 15, 39, 9, -12, 63, 7, 24, -10, -21, -32, 29, 58, -1, 19, -47, 19, 31, 20, 87, 0, 48, -35, -27, -39, -6, 64, 41, 75, 6, -60, 14, -71, -36, -26, 43, 5, 18, -27, -64, 5, 13, 44, -58, -29, -1, -68, -7, -15, 11, 6, 27, 80, 19, -33, 31, 52, -4, -25, -13, 54, -12, 33, 7, -15, 4, -20, 20, -72, -41, 73, -56, 56, 4, -17, -24, -24, 6, 48, -22, 40, -39, 24, 29, -8, 48, 45, -31, -30, 25, -44, 12, 33, 43, -10, 35, -24, 44, 29, 24, 9, -9, -27, -51, -2, 75, -10, -55, -46, 5, 42, -16, -29, -104, 2, 85, -34, -57, 38, -28, -19, 32, -26, 25, -28, 22, 18, 20, 18, 62, 1, -43, -66, 41, 24, -86, -42, 35, 56, -59, -19, -18, -6, 51, 61, -25, -30, 52, 45, 67, -21, -11, 30, 4, 26, 40, 7, 21, -37, 15, 14, -29, 6, 66, -9, 58, 6, -83, 25, -40, 34, -82, -60, -7, -70, 37, 44, 14, 87, 15, 51, 42, 38, -61, -12, -57, -44, -15, -17, -7, -63, -58, -65, -9, 0, 40, 23, 24, 3, -39, 21, 55, 61, 61, 55, 64, -14, -4, -20, -4, -73, 22, 3, -4, -23, 32, 27, -24, -64, -1, 22, -79, -38, -2, 7, 17, 2, -17, -20, -7, -30, -54, -58, 4, 65, -77, -47, -25, -13, 3, 30, -8, -73, 16, -106, 58, -33, -23, -64, -45, -57, -71, 55, 62, -86, -34, -29, -43, 8, -20, 28, -14, -59, -86, 71, -26, -53, -49, 34, -37, -21, -4, -57, -63, -34, 10, -76, 70, -33, -45, 42, 22, -27, -60, -54, -56, -74, 35, -9, 16, 46, 57, -58, -37, 51, -52, 39, -44, -14, -60, -13, 44, 15, 3, -48, 13, -34, 46, 21, 3, 37, 52, -3, 64, -62, 36, -51, -56, -68, -34, 1, 49, -22, -19, -102, 34, -54, -61, 13, 17, 43, -118, -25, 26, -21, -22, 59, -90, -28, -3, -60, -21, 7, 8, -59, 19, 42, 57, -38, -38, -89, 18, -92, -40, -9, 61, -44, 46, -52, -69, -31, 55, -32, 17, -39, 66, -37, 12, 31, -64, 5, 68, 2, 50, -80, -63, 21, -28, -41, 66, -24, -32, -54, -64, -75, 18, -1, -50, -48, 31, -38, -13, -66, 22, 17, 19, 29, 42, -59, -34, -51, -14, 0, -53, 58, 65, 2, 5, 25, 23, 57, -17, 60, 50, 5, -1, -98, -59, 23, -38, -98, -26, -39, 1, -48, -5, -40, -58, -31, -17, 57, -45, 52, -53, -36, 53, -62, 9, -24, 44, -19, -60, -39, -58, -59, -42, -82, -10, -2, -10, -54, 43, -30, -28, 74, -39, 8, -31, 11, 30, 35, 64, -45, -26, -42, -43, 40, 77, 30, 58, -38, 31, -4, 33, 45, -28, -11, -13, -94, -13, -35, 38, -44, -30, 21, 43, 57, -54, -20, 21, -28, -10, -35, 50, -17, 8, 38, -87, -18, 39, -15, 29, 62, -62, -47, 31, -3, 41, 43, 68, -98, 23, -63, 5, 47, 39, -20, -42, -36, 44, -11, 12, -45, 15, 38, -14, -13, 31, -18, -99, 44, 33, -61, -28, -16, -7, -30, 11, -9, 69, 50, 66, -71, 45, -47, -32, -3, -47, 68, -10, 37, -64, 42, -22, -29, 15, -35, 54, -21, 19, 33, 29, -13, 7, -42, -26, -38, 45, 34, -14, 17, 42, 7, 55, -22, 45, -15, -4, 55, -30, -11, 53, -25, 39, 16, -23, 9, -39, -21, 1, -43, 35, -5, 27, -19, -36, -11, 50, 18, -43, 26, -40, 51, -34, 50, -24, 16, 36, -51, -31, -69, -70, -101, 37, 17, -10, 5, -16, 42, 25, -18, -37, 33, -55, -30, -70, -66, 17, -100, -57, -92, 23, -7, -45, -31, -54, 49, 30, -68, -35, -9, -55, 49, 70, -35, 39, -33, -41, 17, 61, -68, -67, -56, -59, 16, -11, 42, 9, -39, 5, -37, -42, -33, 42, 12, 61, 33, -68, 66, -22, -67, 47, -54, 40, 2, 39, 16, 43, -33, -66, 49, -8, 19, -70, -35, 50, 36, 19, 31, -37, -24, -49, 20, -8, -55, -6, -23, -28, 17, 39, 59, -49, 8, 33, 43, 7, -59, 42, 30, 22, -25, 6, 20, 68, 64, 39, -53, -49, 18, 20, -61, 18, 35, -54, 0, -21, -9, 40, 34, -15, 48, -12, 89, 22, -9, 22, 3, -31, 46, 47, -36, 16, 20, -19, 71, -35, -10, 18, 56, 52, 40, -45, 72, -34, 76, 65, 13, 12, 20, 56, -63, 19, 47, 27, 34, 7, -48, 70, -21, 42, 56, 50, -17, -19, -16, 25, 42, 69, 58, 50, -8, 13, -39, 26, 53, -85, -39, 19, 54, 53, 63, -49, -45, -63, 36, 16, -8, -31, 24, 22, -4, -23, -12, 68, -19, -26, -38, -72, 65, 35, -21, 43, -6, 33, 64, -34, 41, 2, -37, 57, 66, -3, 47, -52, -30, -13, -26, -63, 22, -5, 30, 19, 25, 43, -16, -40, 37, -14, 46, 33, 29, -23, 0, -79, -18, 47, 43, 10, 35, 10, 0, 69, -93, 8, 38, 41, -16, 23, 77, -29, 35, -51, -16, -2, -30, 26, -23, -41, 1, -7, -48, -26, 1, -4, 27, -25, -28, -14, -51, 30, -50, -92, -53, 68, -38, -12, -41, 3, -55, -3, 63, 43, -16, 65, -51, 32, -118, 41, -6, 37, -18, 1, -45, -29, 43, -47, 15, -108, -39, 12, 38, 40, 70, 0, -57, -1, -8, 66, 62, -63, 7, -24, -10, 46, 4, 31, -68, -55, 27, 14, -34, -8, -39, -12, 64, -84, 10, -30, 37, -35, -47, -10, -16, -30, 73, -30, -10, -50, -59, 34, -29, -28, -26, -39, -48, -4, -21, 49, 16, 33, -78, 44, -43, -27, -101, -18, 55, 54, 4, 5, -48, -53, -3, 30, -55, -73, 59, 9, -59, 0, 42, 4, -14, 39, 31, 38, -66, -1, -41, -42, -70, 79, -74, 60, 32, 55, -84, 21, 22, -63, -1, -3, 30, -44, -27, -39, 27, 24, -6, -95, -19, -62, -19, -27, -3, -6, 28, -67, -48, -52, -59, 6, 17, -20, -28, -46, 67, 50, -78, -20, -29, -85, -9, 32, 26, -108, 48, 12, 31, 5, -42, -102, -54, -45, -26, 72, -29, 33, -30, 4, 73, -38, 10, -5, -11, 52, -76, 14, -5, 48, -9, -27, -50, -41, 46, -4, 38, -40, 21, 27, -54, 41, -39, -16, -85, 22, -74, -44, -36, 26, -8, 36, -18, -31, -60, -6, -90, -52, -67, 23, 12, -31, 40, -57, -26, -88, 27, 70, 67, 10, -54, 7, -56, -37, -31, -66, -59, 47, 22, -25, -38, -44, -29, 6, -49, 47, 34, -10, -74, -10, -84, -38, 59, 63, -76, 13, -11, -26, -39, 12, -46, -68, 20, -1, 55, 66, -54, 41, -60, 65, -15, 63, -23, -22, 2, 27, -9, 22, 8, 51, -28, 29, -40, -59, -47, 57, 32, 42, 1, -53, -31, -37, 34, -31, -37, -52, 30, -59, -39, -54, -21, 64, -34, 19, -43, 32, 30, -61, 13, 15, -53, 65, -51, 39, -69, -29, -47, 22, -2, -25, 29, -7, 41, 10, -26, -1, -3, 4, -55, 48, -43, -37, -13, 13, 52, 17, 24, 20, 24, 52, 66, 24, 55, 0, -67, -56, 42, 42, 34, 16, 41, -56, -34, 25, -48, 66, -36, -79, 44, 60, 10, -20, 39, -7, 68, -35, -54, 56, -32, -18, 33, -6, 54, 55, 42, 41, 1, -65, -109, -29, 48, 61, -38, -2, -52, 25, -25, 14, -27, 27, -26, 43, -17, -7, 25, -9, 93, 67, -53, 6, -30, -75, -67, -60, 24, 22, 47, 14, -68, -46, -44, 13, -25, 28, -2, -22, 10, 37, 24, 59, -30, 21, 29, 51, -56, -17, 7, -61, -33, -29, -4, 58, -36, -63, 37, 6, -1, 37, -40, 59, -26, 70, -3, 29, 24, -2, -83, -65, -26, 36, 45, 4, 27, -68, 33, -6, 48, -57, -43, -113, 70, 11, -23, -43, 7, -58, -7, 35, 11, -4, -49, -42, -73, -10, -119, 21, -21, 36, 42, -41, 40, -45, 24, 48, 50, 28, -5, -28, 32, 10, 8, 33, 88, 57, 5, -58, -55, -13, -66, 42, -6, -52, -2, 32, -35, 60, -41, -27, -59, 2, -16, 60, 59, -68, -36, -16, -15, 40, -35, 15, 2, 55, -58, -16, -40, -42, -30, -28, -62, -47, -29, 42, -12, 51, 41, 10, -29, 24, -64, -30, 57, 18, 4, -18, -15, -30, 45, -48, 33, -29, 55, -58, 40, -58, 40, -61, -31, 65, -36, 39, 9, -40, 48, 48, -62, -20, -63, 61, -7, 4, 17, -42, -15, 62, 34, -22, 14, -50, 56, 55, 32, 57, 12, 14, -76, 18, 3, 28, 4, 26, 62, 54, -75, -3, -53, 41, -29, 29, -33, -46, 18, 17, -42, -16, 33, -17, 35, -44, -27, -11, 17, -12, -31, 0, -64, -35, -4, 26, 0, -73, -2, -62, 59, 46, 30, -58, 33, -33, -23, -2, 27, -3, -83, 49, -100, 42, 24, -43, 35, 31, -27, 11, 1, -45, -21, -39, 47, 63, -36, 12, 33, 67, -15, 18, 66, -5, -24, -9, -36, 40, 2, 43, 10, 16, 10, -30, -72, -1, -41, 23, 42, 5, 2, -35, -33, -40, -9, 21, -9, 10, -34, 51, -39, 52, 27, -7, -22, 43, 82, 60, 25, -30, -35, 28, -27, 1, 24, -52, 31, -51, -29, -49, 28, 27, 24, -13, 4, 76, -34, -32, 65, -51, 1, -46, 73, -30, -32, -1, -28, -60, 73, -37, -51, -3, 46, 16, 72, -27, -26, -43, -14, 5, 29, 61, -52, -45, -23, -70, 74, -54, -4, 2, 9, 72, 22, 26, 59, 5, -13, 81, 71, 66, 1, -43, 46, -54, 33, -29, -35, -31, 1, 17, -12, -27, 10, 41, -41, 45, 76, 63, -32, 42, 15, -12, 46, 55, -15, -26, 20, -22, 42, 49, 37, -16, -39, -55, 4, 32, -41, 16, -30, 19, -4, 56, -13, 43, 54, 16, 63, 54, 67, 1, 22, -42, 62, -102, -41, 3, -17, 2, -1, -39, 2, 87, 44, 48, 64, 41, -39, -1, 40, 67, 39, -32, -88, 61, -52, 14, -59, 23, -32, 5, -11, 22, 25, -59, 59, 50, 50, 38, -44, -13, 37, -3, 67, -35, 42, -22, -54, 30, -14, 41, 41, 59, 7, -25, -70, -4, -3, 0, 55, 0, -13, -53, 54, -62, -49, -40, -64, 30, 32, -5, 16, -11, 31, -13, -53, -24, -40, -3, 16, -3, -38, 4, 31, -57, -81, -31, -96, -61, -20, 51, 35, 24, -6, -57, 64, 14, -28, -49, -52, 13, 56, -54, 60, 73, 53, -39, -10, -21, -38, -1, -36, -48, 5, -30, -25, -2, -5, -59, 20, -11, -88, 41, 55, -13, 11, -40, -31, -29, -8, 18, -36, -89, 57, 46, -2, 69, 7, -56, 8, 32, 13, 34, -68, -5, -12, 18, 58, 38, -52, 8, -80, 50, -76, -24, -53, 26, -24, 68, 34, -78, -11, -9, 52, -13, -36, 78, -53, 53, 24, -64, -72, -30, -82, 52, -52, 15, 35, -59, -26, -24, -62, -6, -102, -58, -54, -9, 72, 1, -9, 39, 72, -90, -22, 4, 50, -57, 4, 27, 32, -7, 85, -40, -115, -20, -87, -48, -44, 53, 0, 50, 12, -10, -39, -51, -74, -14, -65, -42, -7, 41, 9, -45, 8, -77, 22, -46, -10, -67, 41, 47, -55, -23, -39, -23, -43, 75, -39, 4, -84, -33, -17, 63, -53, -14, 70, -10, -98, 34, -2, 35, 58, 22, -43, -48, 7, -44, -10, -14, 59, -33, -38, -57, 45, -58, -44, 9, 6, -28, 9, 36, -7, 43, 30, 57, 44, -6, 44, 49, 26, 26, -10, -11, 36, -37, -53, -37, -26, 70, -1, 3, 18, -31, -19, 51, -37, -23, -57, 25, -70, 1, 8, -7, 37, 24, 11, 46, -57, -23, 29, -1, 20, 20, -88, 24, 0, -62, 16, -37, 59, -9, -41, -30, -48, -20, 47, -58, -77, -59, 34, 26, -7, 60, 26, 58, -15, -49, 49, -65, -48, 53, 40, 37, -65, -71, -96, 27, -20, 44, 32, -9, -8, 29, 14, 22, -23, 21, 34, -30, -43, 49, -24, 12, -19, -13, -20, 21, -58, -59, -34, 1, 23, -5, -60, 31, -72, 65, -22, 3, -16, 26, -2, 13, 2, -36, 5, -49, 16, -30, 47, -56, -27, -7, -64, -52, -84, 24, -28, 8, -84, -69, 9, -9, 37, -59, -57, 35, -7, 43, 3, 19, 37, -38, 41, -7, -64, -33, 54, -54, -1, -89, 8, 59, 13, 8, -15, -9, -27, 20, -46, -3, -36, 0, 37, 14, -54, -4, -52, -22, -1, -58, -66, -42, 40, -55, -35, 57, 1, -13, 39, -66, 33, -31, 0, 27, -24, 40, 45, 2, 43, -2, 59, 22, -5, -5, 13, 29, 46, -8, 18, 25, 24, 23, 36, 44, 30, 10, -76, -51, -24, -10, -4, -12, 14, -6, 47, -39, -66, -59, 0, -2, -9, 38, -50, 42, 34, 54, 17, -2, 34, -9, 2, -5, 43, -48, -70, -16, 5, -33, -23, -17, -14, -6, -51, 15, 3, 24, -64, -22, 41, -11, 5, 33, 59, -47, -78, 52, -53, 2, -51, 14, -28, -65, -41, 42, 91, 53, 9, 38, -39, 17, 27, 22, -46, 53, 38, -1, -32, 89, -48, 2, 15, 30, 1, 57, 61, -16, 45, -46, -71, -16, 50, 31, 17, -45, 13, 26, -32, 19, 69, -19, 31, -3, -52, -59, 32, -44, 53, 24, -29, 75, -61, -48, -23, -64, 0, 21, -59, -25, -22, 56, -30, 11, -56, 60, 32, 19, 29, -45, 7, -37, -32, 45, 46, -10, 71, 31, 56, 19, 32, -37, 46, -24, 2, 31, -10, 62, 29, -5, 4, 78, 69, -9, -8, 64, -60, 47, -15, -47, -16, -17, -80, 17, 14, 28, 30, -34, 9, 4, 28, 33, 59, -15, 80, -83, -49, -4, -3, 44, -58, -38, -44, 65, -11, 39, 32, 59, -24, -57, -28, -8, 81, 59, 13, 28, -42, 79, -26, -25, -2, 34, -8, 48, -47, -9, -23, 58, -22, 9, 36, -28, 51, 36, 59, -7, 11, -32, 29, -30, 54, 44, 5, 25, -35, 67, -83, -8, -12, -39, -5, -45, -53, -31, 51, 89, 48, -32, -24, 19, -41, 21, 21, -2, -39, -73, 102, -18, 71, -41, 79, 24, -17, -7, 37, 42, 2, 54, 10, 47, -61, -54, -10, 67, -22, 74, -19, -19, -7, -50, 18, -19, 67, 13, 60, -39, -5, -14, 37, 66, -38, 25, -58, 23, 37, -60, 76, 50, -15, -15, -7, 8, -52, 20, -7, -50, 64, 45, 8, -23, 66, 46, 82, 4, -5, -42, 52, 41, 0, 26, 36, -11, 0, 0, 81, 17, 32, 45, -39, -30, 16, 36, 31, 57, -39, -1, 24, 1, -59, 4, 55, 62, 1, 29, -31, -25, 63, -40, -64, -33, -63, -73, -14, 7, 40, 55, 39, -2, 14, 3, -11, 2, -8, -39, 25, -28, -53, -44, 54, 48, -42, -39, 42, 37, -42, 76, -14, -84, -38, -32, -25, 48, -17, -26, 29, 11, -63, 47, -68, 23, -3, -41, -12, 49, -44, -46, -95, -57, -14, 27, 23, 60, -30, 67, 30, 19, -47, -57, -49, 26, 73, 32, -46, 30, 47, -66, -64, 49, -57, 41, -60, -41, 44, 38, -6, -18, 46, 36, -27, -20, 10, -16, -38, 43, -81, 44, 49, -58, 48, -17, -33, -99, 24, -26, 59, -20, 31, -71, 29, -53, -94, 69, -34, -2, 31, 6, 69, 35, -28, 16, -98, 58, -60, 8, 34, -50, -90, 56, -49, -21, 44, 32, -40, -43, -50, 14, -20, -42, 39, -38, -75, 7, -50, -15, -73, -3, -66, 47, 71, 38, 42, -23, -82, 37, -26, 56, -27, -40, -14, -6, -7, -48, 64, -32, -53, -92, -3, -1, -29, 55, -25, -56, -90, 62, -91, 39, -57, 61, -74, 34, -18, -55, -65, 2, -29, 23, -65, -48, 63, -15, -72, 16, 64, -66, -36, 64, -38, -60, 65, -55, 22, -47, 2, -78, -78, 49, -94, 50, -4, 13, 31, -42, 45, 12, 20, -26, -18, 54, 14, -50, 22, 70, -63, 0, -44, -1, -27, -55, 7, -49, 2, 36, -41, -58, 27, 17, 19, 51, 61, 2, -4, 45, -33, 27, 48, 8, -49, -37, -58, -34, -91, -27, 31, -35, -35, -21, -49, -52, 7, -20, -1, 35, 47, -50, -84, -35, 6, -64, 23, -37, -62, -1, -73, 21, -24, 27, -64, -1, -59, 51, -31, 65, -23, -13, 26, 43, -30, 7, -16, -49, 57, -50, -39, 19, 57, 27, 1, 11, -42, -42, -13, 17, -75, 4, 17, 16, 53, 10, -65, -32, 53, 11, -78, -55, -60, -72, -50, -16, -14, -29, -46, 3, -72, -10, -12, -1, 0, -52, -62, -72, -37, -80, -16, -39, 17, 34, -1, 17, 33, 34, -34, 66, 38, -65, 93, -23, 26, -47, 0, 17, 0, 32, -27, -4, 0, -36, 5, 60, -14, -2, -50, 37, -47, -111, -63, -57, -101, 27, -73, 0, 13, 60, 51, 38, 43, -37, -5, -52, -22, -47, 21, -3, 37, -37, 12, -4, 23, -33, -25, -40, -23, -2, -7, -3, 8, -39, -2, 23, -34, 33, -104, 7, 30, -24, -59, 2, -3, -56, -75, -13, -45, -16, -34, -14, 13, -21, 5, -20, -2, -48, 31, -70, -55, 17, 12, 48, 45, 30, 11, -69, -26, -11, -42, 16, 3, 40, -5, 6, 59, -63, -77, -38, -57, -31, -48, 3, -52, 2, 47, 26, 10, 6, 4, 31, 42, -35, -40, 16, 52, 83, 48, 40, 28, 18, -44, -44, -9, 52, -12, 47, -30, 9, 98, -12, 46, 52, -3, -10, -29, 6, 18, -2, -17, -11, -40, 13, -39, -26, -2, 41, 47, 6, -50, -24, 50, -80, -101, -29, -25, -12, -49, -45, -16, 33, 58, 24, -30, 41, 6, 2, -58, -5, 55, 63, 36, -20, 38, -22, 32, -18, 36, 18, -45, -48, 8, -64, 22, -45, -99, -26, -20, 46, -40, 17, -7, -59, 47, 39, 68, 14, 6, -73, 68, -4, -11, 45, -59, -28, -53, -22, -25, -11, -48, 12, -32, 30, 58, 26, -47, -22, 33, -28, -34, 32, 11, 76, 1, -17, -22, 78, 7, -42, -19, -35, 27, 83, 1, -65, -21, -18, 27, 38, 9, 24, -55, 7, 27, 31, -11, 3, -16, 61, -49, 6, -24, -55, 67, -29, 56, -32, -79, 6, -34, 80, -27, 21, -50, 47, 52, 28, 60, 26, -46, -89, 68, -17, -42, -45, 21, -24, -90, 5, 75, 69, 31, 40, -2, 18, 38, 50, -43, -29, 51, 76, -34, 53, -25, -41, 62, -30, 68, 60, 62, 16, 6, 11, -45, 17, 49, -21, 69, 2, 17, -29, -14, 46, 40, 52, 57, 5, 40, -17, 34, 23, 46, -25, 73, 75, -15, 18, 31, -20, -45, 6, 49, 4, -34, -27, -29, 6, 58, 57, 42, 6, 26, -41, 42, -26, 9, 16, 48, 36, 62, -44, -3, -37, -37, 60, -33, -29, 48, -23, -13, 77, 6, -32, 2, 45, 61, -85, 13, -4, -21, 42, 8, -41, -6, 34, 45, -9, 24, -32, -5, -61, 59, -28, 15, 66, 4, 7, -40, -21, 64, -9, -30, -18, 20, 23, -57, 13, 12, 0, -55, 57, -9, -55, 47, -13, 29, 36, -11, -18, -47, 64, 11, -10, -27, -8, 9, 33, -66, 19, 43, 42, 10, -79, 26, -62, 28, -24, -34, -69, 30, -64, -8, 7, 37, -39, -57, 28, -29, 38, 18, -6, -60, -2, -12, -55, -57, -32, 11, 15, -2, 56, -28, 27, -36, -69, -105, -31, 28, -82, 26, 64, -53, -47, 53, -60, -22, 21, 15, -72, -39, 1, -96, -24, -74, 15, 39, -5, 28, -69, -23, 23, 9, -21, -82, -38, 40, -6, -96, -12, 41, 34, 7, -34, 14, -30, 52, 39, 9, 69, -28, -29, -55, -57, -25, 60, -77, 39, -46, -52, 61, 25, 45, -10, -20, -31, -84, -15, -30, 25, 17, -52, 5, 9, 53, -47, -10, -3, 63, -52, 65, 73, 55, -15, -75, 74, 12, -4, -73, 29, -21, -43, -51, -49, 41, -37, -39, -2, -67, 22, 58, -19, -109, 78, 53, -87, 35, 62, 29, -118, -24, 53, 27, 12, 35, -62, -93, -54, -78, 36, 21, 2, -66, 11, 4, -57, 17, 24, -8, -18, -38, 17, 83, 6, 24, -8, 38, -19, 63, -16, -43, -38, -47, -55, 39, -27, 24, -97, -100, 5, -55, -26, -113, -14, 2, -19, -7, 55, -6, 45, 12, 38, -47, 25, -30, 58, -6, 11, -10, -7, 23, -34, 45, 0, 76, -2, -6, 17, -29, -11, -90, 55, -109, 75, -56, 71, 40, 0, 61, -60, 57, -11, -43, -21, -31, 22, 48, -49, -37, -43, -15, 8, 4, 23, 0, -10, 27, 41, -62, 22, -20, -35, -17, 22, 0, 14, -12, -12, -26, -36, 13, -26, -53, -36, -88, -10, 18, -27, 30, -2, 14, -32, 3, -24, 6, -12, -37, -66, -58, -20, 5, -47, 47, -110, -89, 1, -103, -19, -90, -15, -10, 47, -6, -18, -26, -26, -49, -67, -114, -24, 8, 61, -74, -14, -61, -66, 57, 26, -68, -11, -59, 41, -38, 64, -56, -14, -86, 14, 1, -35, -77, -43, -27, -51, 25, 7, 37, 51, 15, -57, -55, 17, 3, -39, -4, -63, -62, 49, 18, -67, 19, 8, -27, 46, -88, 31, -29, -33, -20, 6, -7, -28, -9, -21, -14, -8, 1, -38, 12, -48, 43, -8, 9, 24, -67, -75, 7, 52, -43, -63, -9, 0, -61, 42, 18, -23, 41, 51, 9, -59, -44, 35, -43, 16, 54, -63, -69, -57, 51, 37, 49, 11, -37, -40, -20, 7, -36, 53, -35, -47, -5, -34, 44, -18, 8, -83, -9, 27, 50, 53, -54, -115, -47, 16, -61, -55, -30, -15, 17, 37, -53, -69, -49, -4, -82, -18, -21, -55, -43, 45, 31, -9, -62, 12, -67, -25, -22, -106, 13, -26, -58, -47, 51, -56, 3, 59, 46, 35, -59, 41, -5, 39, 22, -66, -52, 63, 46, -45, 18, -65, 43, -17, -61, -72, 23, -20, -60, -43, -64, 27, -70, 44, 17, 14, -61, -26, -60, -50, -28, -47, -94, -76, 35, 32, 37, -42, -26, -79, -4, -74, -36, -36, 10, 39, -37, 28, 5, -38, 8, -43, 20, 19, 12, 7, -2, -67, 23, 45, -3, 23, -62, 43, 26, 35, 14, -5, -8, 41, -16, -3, -16, -4, 2, -4, -17, -69, -17, 45, -11, 25, -50, -32, 47, 78, 48, -11, -72, -4, -35, -24, -35, 14, -77, -61, 18, -68, -55, -16, 27, 11, -64, -48, 34, -43, 41, 52, -9, -12, 12, -17, -27, -48, 19, 72, 44, 3, 8, -3, 63, -1, -52, -57, 26, -28, 5, -20, -9, 31, 47, -25, 44, 61, 22, -40, 47, 70, -21, -25, 7, -1, -48, -43, 38, -74, 28, 80, 50, 16, 63, -5, 11, 28, 21, -27, -5, 7, -77, 64, -49, -41, 27, 1, 79, 47, -25, 67, 26, 8, -16, -7, -33, 50, -61, 23, 51, 19, 5, -55, 24, -50, 41, -34, 14, 3, 18, 6, -32, 36, 12, 62, -90, -16, -32, 31, 61, -8, 65, 59, 18, -10, -57, 1, 34, -19, -32, 6, 59, 19, 41, 57, -43, -58, -14, -30, -3, -7, -10, -13, 2, -3, 11, -37, -43, -10, 39, -10, 31, 40, 86, 52, 35, -53, 34, 59, 56, 72, 7, 62, -5, -52, -39, -38, 70, 23, 41, 58, -29, -37, -33, -29, 29, 78, 64, 72, 2, 54, 35, 21, 12, -37, 9, 2, -50, 66, 15, 18, -48, 33, -41, 34, -40, -42, 28, 52, -45, 4, -17, -22, -53, 56, -42, -71, 7, -20, -71, 14, -7, 47, 16, -61, 30, -25, -17, -39, -37, -28, -68, 25, 1, 54, 41, 47, 56, -28, -37, 36, -15, -79, 66, 36, -32, -61, -17, -17, -3, 17, 26, -1, -8, -16, -43, -8, 43, -75, -47, -78, -67, 48, -33, -11, -33, 45, -79, 13, 64, -8, 30, -3, 23, -38, -9, 56, -21, -22, 57, -87, -30, 36, -37, -10, 22, -36, 31, 32, -56, -45, -25, -7, -91, -42, -34, 39, 2, 54, 4, 56, 57, -21, -21, -60, -35, -14, -2, -42, 14, 16, -53, -60, -24, 23, 11, -25, 76, 32, 28, -47, -45, 45, 11, -48, -18, 55, -45, 0, 76, 53, -64, 44, -13, -46, -10, 51, -28, -70, 65, -52, -33, 69, 27, 17, -85, -3, -9, -44, 33, 17, -24, -36, 37, -6, 47, -61, 22, 29, 12, 12, 40, -21, -15, -15, 27, -69, -12, -13, 19, -54, 54, -40, 13, 63, -11, -41, -25, 39, -21, 17, -1, -29, -59, -3, 25, -43, 1, -68, -57, 63, -18, 54, -16, 54, -109, -36, -1, -4, 69, 50, 11, -80, -37, -15, 12, 10, 8, -14, -80, 31, -82, 61, 10, -38, -4, 39, -19, -25, -57, 6, -64, 27, -46, 29, -18, -15, -39, 24, -21, -66, -40, -55, 13, -100, 75, 25, 18, 24, 20, 2, -62, 48, -46, 62, -28, 8, 37, 29, 2, 24, 9, 13, -21, -23, -87, -5, -17, 29, 8, -7, 64, 39, -21, 8, -15, -43, 22, -39, 74, -29, 55, -103, 3, -2, -67, -4, 36, -25, 7, -24, 69, -43, 6, 26, -14, 60, -2, -42, 15, -1, -4, -36, -30, -83, 3, 33, -39, -126, -48, 31, 29, 63, 17, -24, -9, 38, -47, 19, -78, 38, 16, 61, -63, -28, 12, -41, -18, -9, 43, -18, 8, -42, -20, -41, -19, -89, 67, 18, 36, -11, -64, -16, 19, 56, 7, -73, 8, -24, -80, -5, 67, 10, 15, -57, 53, 1, 1, 25, 2, -17, -60, 53, 61, -24, 45, 25, -22, -77, 59, -24, 69, 15, 20, 58, 22, -4, -9, -13, 10, 45, 56, 23, 21, -29, -28, -52, -45, -3, -7, -36, 28, -19, 49, -1, -12, -73, 19, -68, 2, -14, 60, 24, 47, -40, -3, 57, 16, -1, -45, -18, -71, -17, 78, 43, 26, 30, -15, -54, -11, 26, 3, 11, -19, 31, -17, -55, 21, -21, -5, -22, 56, 41, -35, -8, -67, 14, -19, 44, 59, 49, 57, 10, -81, -63, -2, -1, -39, 44, -8, 53, 40, -19, 38, -60, 1, 15, -4, -19, 3, 14, -26, 16, 46, 15, 7, 38, 11, 4, 19, -7, 38, 35, 14, -58, -47, -45, 33, -43, 21, -36, 42, -33, -38, 19, -6, 36, -32, 37, -55, -27, -25, 30, 45, 7, -6, 37, -39, -57, 13, -7, -39, -55, -12, -55, 47, 13, 5, -46, 83, -5, -42, 27, 48, -46, 16, 1, 38, 9, 59, -66, 54, -19, -6, 1, 33, 27, -45, 9, 9, -25, 62, 17, 49, -81, -36, -30, -44, 52, -26, -58, 64, -51, 15, 31, -45, 57, 2, 18, 30, -36, 37, 28, 39, -22, -55, -64, -17, -78, 37, 42, -44, 64, -33, -112, -51, -72, -65, -15, -68, -55, 27, 2, -17, -44, -54, -56, 3, 18, 31, 16, 55, 44, -3, -67, 40, -43, 34, -60, -15, 38, -72, 29, 24, 65, -58, -48, 38, -62, 13, -41, -23, 31, -8, 61, -34, 12, -37, 23, 21, 14, 22, -31, 10, 47, 20, 40, 41, 2, 25, 51, 74, 64, 57, -15, -31, -33, -10, -48, -13, -43, -25, 36, -12, 12, 35, 11, -17, -47, -43, 10, 42, 21, -58, 57, 29, -22, 57, 27, -79, 24, 6, -28, -43, 49, -26, 60, -35, 38, -27, -92, -18, 20, 39, 55, 45, -57, 57, 55, 11, 42, -31, 17, 20, -9, -33, -7, 38, 6, -29, 38, -39, -46, 18, 65, -104, -28, -49, -18, 68, -51, 67, -53, 9, 50, -15, -16, 39, -44, -37, 30, -114, 21, -51, 27, 47, -41, 40, 74, 4, 59, 54, 75, 19, 30, -19, 51, -44, 3, 66, 9, -25, -19, -45, -27, 8, -1, 42, -17, -17, -93, -77, 82, -43, 71, -103, 28, -55, -44, 23, -44, 23, 17, 40, 40, 57, 64, 76, 10, 105, 7, 11, 49, 76, -18, -13, 46, 4, -15, 74, 4, -12, -10, 78, 59, 71, -20, 48, -34, 30, -45, 4, -17, -12, 36, 20, -24, 19, 75, -2, 65, -52, -39, 55, -66, -5, -42, 72, -24, -47, 62, 34, -41, 55, -41, 57, 64, -1, 51, -20, -30, 26, -15, -14, -54, 57, -39, 8, -14, -3, -3, -9, 31, 11, -12, -36, -98, -17, 21, -24, -26, -21, -1, -13, -52, 38, -42, -85, -54, -30, 28, -26, 4, -62, -49, -2, -34, 36, -20, -116, -36, -54, 49, -23, -46, -65, -12, 26, -32, 21, 76, 71, 10, 22, -45, 22, 16, 35, -97, -48, -57, -110, 4, -8, -32, -16, -64, 63, -5, -25, -19, -70, -26, -16, 46, 12, 43, 6, -58, 59, -15, 45, -53, -21, -75, -50, 78, -12, 54, 10, 7, 49, 29, -110, -10, 10, -70, -33, 8, 31, -47, 56, 55, 20, -26, -37, -39, -26, 50, -70, 59, 29, -42, -31, 14, 48, 7, 53, -50, 14, -12, 30, -81, 1, 36, 45, 21, 1, 59, -6, 59, -49, 61, -2, 56, 7, 68, -42, -35, -7, -7, -32, 24, 1, -49, -45, 32, -57, -50, 51, -19, 8, 7, -30, -93, -98, 77, 20, 56, 9, 2, 1, 40, 47, 31, 46, 14, -83, 40, -63, 1, 17, 43, -86, -2, 32, -36, -44, 37, -41, -95, -28, -2, 59, -7, 24, -106, -102, -44, -67, -58, 6, -69, -22, -58, 40, -32, 11, -7, -86, 52, 13, -42, 42, 68, -59, -5, 59, 22, 13, 33, 78, -3, 30, 60, 39, 21, -54, -42, -19, -33, -8, 34, 19, -17, -5, -44, 73, 57, -52, 59, 34, 59, -69, 4, -44, 2, -72, 55, -27, -7, -6, -44, 62, -77, 69, -21, 33, -13, -30, -53, -80, -41, -53, -44, -1, -70, -27, 29, -35, 51, -32, 34, -104, -10, 28, -24, -39, -55, 2, -61, 22, 19, 25, -9, -5, -66, 30, 17, -57, -21, 11, -24, 44, -24, -76, -23, -99, -19, -55, 33, -17, -5, 28, 55, -28, -3, -45, -31, 28, 27, 16, 21, 67, 41, 65, -17, 59, -31, -34, 41, 18, -38, -32, -67, 9, -26, -3, 30, -1, -14, -23, -16, 24, 48, -20, 20, 0, 36, 4, 39, 58, 54, -42, 45, 13, -56, 61, 39, 18, -12, 42, -40, 60, -26, -5, -46, -19, 12, 61, -33, -49, 45, 42, 45, 50, -21, -6, 26, 69, -17, -6, -38, 11, -14, 4, 35, 7, -22, -20, -7, 48, 40, 13, 32, -6, 60, -23, -16, -95, -22, 67, 33, 18, -34, -36, 40, 56, -4, 29, 60, -15, 32, -64, -53, -43, -47, -78, 54, -25, -17, -25, -28, 38, -74, -48, -26, -35, 42, 42, -67, -32, -33, -43, -54, -45, -14, 22, 40, -1, -15, -4, -45, 56, -48, -49, 22, 13, -41, -42, 45, -23, -57, 15, -25, 14, -39, -5, 59, -48, 23, 40, -65, -29, 3, 40, 48, 52, 36, 35, -61, 51, -62, 26, 5, -83, 67, -45, -34, -17, -2, 21, 49, -61, -7, -29, -48, -52, -28, 7, -33, -80, -47, 60, -8, 2, 73, -13, -44, -41, -44, 48, -53, 60, -32, 2, 50, -19, -36, -53, -7, 44, -38, 94, -22, 35, -6, 11, 37, 30, 36, 66, -18, -5, 11, -48, 84, 26, -9, 44, 17, 7, 23, 52, 0, 44, -28, -45, -66, 24, 14, -55, -12, -16, 36, 16, -36, -47, 63, 58, 17, -72, 23, 27, -72, 10, 14, -8, 73, -47, 50, -45, -3, 61, -37, -35, -56, -38, 4, 21, 39, -27, -61, -20, 42, 26, 19, -6, -30, -58, 49, 3, 62, 0, 6, 64, 30, -61, 45, -33, 42, -2, -40, 6, -29, 19, -65, -18, 10, 13, -6, 21, -41, -21, 43, 26, -53, -29, 20, 53, 51, -59, 6, 13, -49, -23, -86, -48, 32, 39, -58, 34, -35, -55, 53, -62, 63, 25, -26, -21, -58, 37, 17, 76, 11, -30, 15, -61, -17, -54, 64, -22, -25, -44, -49, -45, -39, 37, -69, 50, -25, 52, -54, -4, -28, 45, 11, 76, -22, 50, -49, -57, -34, 52, 61, 1, -16, -67, -46, -59, -41, 20, -36, -29, 51, 11, 44, 67, 19, 7, -52, 70, 29, 59, -35, -39, -71, 16, -35, 22, -41, -47, 14, -49, -59, 7, -36, 36, -16, -4, -51, 17, -20, 59, 65, -15, -6, -28, -10, 5, 8, 68, 4, -8, -14, 68, 66, 71, -119, 17, -38, 0, -41, 25, -16, -56, -53, -14, -17, 93, -36, -17, -37, -43, -14, 75, -18, -55, -40, -12, -58, -45, -8, 11, -35, 42, 41, -16, 13, 8, -20, -53, -26, -49, -43, 22, 38, -44, 49, 54, -9, -12, -19, 59, -15, 48, -37, 72, 47, -25, 39, 36, -77, 30, 10, 60, -1, -63, -1, 8, 25, -39, 47, 93, 32, 48, -30, 25, 39, 28, -64, 13, -6, 27, 42, 16, -12, 22, -34, -55, 15, -39, 35, -51, -64, 0, 40, -5, -40, -50, -57, -37, -54, -1, 4, -6, -4, -53, 28, -41, -48, -15, 43, 72, -26, 17, 63, -82, -21, -39, -63, 10, -53, -60, -46, 60, -64, 58, 64, 48, 13, 22, -5, 27, 50, -5, -78, -45, -9, 4, -40, 13, 22, -64, 17, -38, -22, 49, 18, -79, 3, -58, -3, 33, 26, -88, -41, 50, -62, 32, 22, 50, -20, 58, 57, 33, 3, 2, 12, -25, -55, -91, 45, -17, 16, 43, 24, 20, -7, 28, 48, 11, -58, -32, 31, -59, -46, -60, -22, 10, -105, 8, 67, 26, 27, 52, -49, 57, 35, 8, -30, 7, 49, -50, 41, -62, -64, 45, -26, 48, -56, 61, 5, 0, 24, 4, 62, -35, -45, 42, 87, 38, -1, 16, -47, -52, -60, -32, -28, 47, 49, -7, 38, -63, -16, 44, 44, -51, -26, 14, 16, -24, 17, 10, -47, -59, -25, 35, -23, 13, 54, -49, -49, 51, -39, -27, -29, 40, -4, -49, 47, 48, -7, -35, -28, -37, 27, 8, -57, 47, 43, -20, 45, -22, 62, -26, 53, -50, -50, 52, 10, 36, 60, 41, 60, 55, -85, 65, -19, 43, -12, -9, 14, -2, 69, 14, 24, -15, 68, -42, -56, -69, 38, 7, -63, -11, -31, -37, 33, -29, 36, -71, 30, -35, 48, -33, 17, -58, -15, -1, -26, 2, -4, 5, -45, 30, -42, -1, -54, -9, 68, 11, -14, -54, -9, -73, 52, -39, 15, 30, 57, 4, 73, -87, 25, -26, 52, -28, 63, -9, -71, 18, 34, 44, 51, -16, 24, 24, 32, 50, 6, 50, 10, 38, 19, 5, 68, 35, -37, -15, 50, 66, 50, 55, 66, 13, 16, -51, -63, -36, -58, -60, 4, -21, 35, -63, 62, 22, -50, 35, -49, 20, -56, 55, -43, 74, -24, 41, -12, 8, 3, 15, 11, -25, -19, 61, -48, 48, -24, -6, -18, -28, 61, -12, -34, -42, -25, 32, 71, 15, -55, -33, -4, -10, -57, 4, -18, 28, -28, -4, -50, 38, 57, -15, 36, -27, 26, 42, 39, -34, -27, 3, -34, -78, 42, 18, 35, 59, -25, 42, -5, -35, -19, -33, 7, -66, -8, -28, -24, -14, -53, -51, 16, 48, -8, 71, 25, 0, 5, -9, 39, -55, 32, -40, -58, -80, 46, 46, -7, 34, 2, 41, -36, 67, 52, 19, 4, -43, -33, 28, 22, -17, -61, 22, -9, 4, 47, -54, 34, 43, 5, -36, -39, -21, -35, 34, -22, -26, 47, 49, -64, -49, -24, -34, -39, -15, 36, 29, -11, -16, -40, -31, 60, -102, -23, -46, -38, -38, 8, -36, -34, 50, -18, -72, 35, -60, -25, -18, 42, -64, -26, 63, -62, 52, 40, 57, 6, 53, 2, -44, 67, 47, -98, -59, 71, 8, -20, -35, 65, 16, 11, -18, -52, -45, 62, -25, 43, -50, 49, -39, -42, 76, -15, 51, 10, 17, 16, 78, -26, 5, -37, 51, -1, 10, 56, -22, -28, 25, -2, 51, -48, -73, 23, -8, 29, 26, -3, 42, 19, 46, -23, -52, -56, 53, -13, 58, 1, -49, 28, -53, -66, -14, -36, -4, -46, 12, 78, -10, -33, 51, -49, 29, 28, 59, -28, 51, 38, -40, 23, 22, 57, 24, 16, 57, 22, -6, 11, 0, -47, 19, 62, 50, -58, 45, -13, -31, 13, -10, 38, -48, 49, 49, -57, -21, 5, -62, -25, -2, 14, -34, 7, 37, 28, 63, -22, 17, 27, 26, 59, 57, -35, -28, 21, 43, 17, -56, -59, 40, 47, -46, -14, -10, 0, -31, 63, -31, -7, -35, -38, -52, -46, -24, -50, 32, 63, -33, 13, 5, -44, 47, -16, -19, -24, 12, 22, 46, -28, 8, 22, 72, -20, 80, 52, -15, -42, 47, 74, 30, 2, -74, -30, 55, 7, -26, 67, -85, 7, -43, -30, 59, 42, 65, 77, 31, -11, 37, -25, 39, -29, 49, -4, 21, -10, 69, 9, -39, 78, 51, 19, -8, 59, 27, -4, 2, 41, 63, -2, -9, 25, -52, -33, 59, -14, -81, -8, -3, -89, 27, 44, 10, -53, -2, -13, 82, 63, -6, -8, 26, 44, -52, -45, -23, 68, -38, 26, -13, 47, 52, -28, -71, 43, -37, 29, 72, 44, -17, -51, 19, -55, 18, -52, -8, -84, -25, 46, -23, 54, 43, -37, -64, 12, -22, -15, 7, 30, -4, -35, -42, 34, 12, -28, 22, -11, 19, -17, 38, 11, 65, -51, 17, 24, -13, -13, -50, -86, -5, -8, 31, 57, 64, -55, -44, 32, 70, -17, 65, -40, -68, 47, 28, 48, 35, -7, -62, -59, -8, -20, -15, 14, -65, -30, 26, -32, -54, 56, 14, -9, 25, -2, 60, -41, 20, -82, 5, 47, 21, 0, -30, 43, 34, -58, -10, -55, -19, 68, -87, -57, -34, 31, -27, 34, -18, -19, 24, -90, -49, -5, -15, -73, 39, -18, 63, -36, -32, -19, -34, 5, -3, 32, -24, 15, -13, -34, 59, 57, -7, -51, 23, 52, 30, -52, -27, 39, 17, 15, -24, -24, -10, -25, -5, 22, -56, 8, -63, 14, 38, 21, -15, -14, 58, 64, -8, -19, -18, 7, -59, -30, 6, 53, 1, 20, 60, 23, -43, 2, -6, 36, 29, -30, 11, -18, 20, -72, 51, -63, 58, 8, 11, 20, -34, 65, -52, -33, 20, 15, 18, 40, -38, 24, -8, -35, 17, 37, -63, -21, 62, 18, -13, -37, 25, 15, -23, 53, -12, -113, -24, 17, -30, 76, -49, -22, 22, -43, 31, 64, -14, 50, -32, -7, -38, 51, -31, -23, -81, -26, -68, -37, 14, 47, 5, 54, 57, -33, -8, 57, -5, 12, 71, 21, 15, -10, 39, -38, -64, 13, -77, -5, 50, -32, -2, -17, 23, 29, -18, 67, -35, -51, -61, 33, 36, -46, -85, 68, 2, -72, -44, 49, 79, 8, 44, -8, 66, 43, -27, -61, 46, 19, -28, 1, -27, 33, -23, 41, 20, 60, -46, 7, -78, -5, -50, 36, 2, -18, 23, -6, 54, -52, -34, -46, -1, -49, -9, -54, -10, 63, -44, -62, 24, -4, 30, 57, -13, -42, -2, -60, 61, -58, -50, -2, 52, 10, 49, 64, -19, -5, 59, 9, 14, -36, 20, -43, -32, -37, 22, 24, -31, -12, -30, 29, -102, -10, -18, -44, -98, 21, -14, -50, -41, -60, 38, 2, -69, 50, -86, 62, 46, -16, 55, 3, 26, 3, -14, 31, -35, -115, 65, -54, 24, 33, -7, 36, 65, -7, -14, 41, 53, 42, -10, 17, -43, -39, 34, -27, 14, -32, -5, -24, -58, -41, -62, -7, 16, 29, -45, -38, -43, -13, 63, 11, -55, -31, -33, -43, -32, 37, -15, 8, -36, 66, -57, 46, -2, 15, 43, 31, 20, 37, -86, 18, -52, -39, -82, -10, -39, -84, 16, -31, -53, -80, 60, -64, -34, -7, 14, -20, 28, -16, -106, -11, 86, -39, -38, 28, 25, -9, 27, -40, 9, 54, 3, -42, 62, 71, 89, 49, 62, -71, 23, -8, -4, 55, 18, 34, -14, 26, 75, -101, -65, 37, -53, 13, -21, 38, -8, 48, 64, 49, 42, -6, -54, 0, 4, -12, 62, -40, 16, 69, 53, 47, -35, 34, 49, -86, -34, 59, -5, 33, -15, 6, -80, 27, 22, -19, 5, -54, -31, 50, -51, 2, -41, 34, -68, -38, -21, 55, 31, 35, -18, 77, -52, -59, 23, 49, -9, -29, 71, -17, 41, 28, -11, -8, 59, 16, -21, -48, 19, -21, 10, 57, -23, -25, 1, -40, 67, -6, -15, 41, -7, 64, 43, 30, -36, 56, 20, 15, 3, -8, -12, -21, -44, -2, 13, 17, 57, 14, 15, -37, -38, 7, -22, -50, 5, -27, 34, 54, -26, 21, 33, -12, 49, 50, 27, 10, 55, -14, 19, 58, -34, 19, 36, 34, -48, -49, -20, 19, -44, 27, 45, -58, 31, 42, 38, -59, 8, 3, -54, 60, -39, 27, -10, -52, 1, 40, 11, 19, -13, -55, 67, -34, -48, -44, 18, -30, -53, -5, 16, 60, -2, -11, 17, 33, -47, -21, 36, 31, 13, -7, 36, 66, 34, -41, -66, 60, 3, -29, 60, -55, 20, -37, -50, -43, 20, -11, -13, 22, 60, -5, -57, 20, 64, -4, 11, 19, -10, 86, -29, -43, 40, 24, -1, 53, 10, 75, -16, 30, 24, 13, -7, 17, -34, -35, 23, 51, 24, -91, 82, -11, 14, 47, 72, -56, -45, 58, -9, 30, 32, -25, 23, 59, -37, 59, 39, 77, -10, -11, 20, -43, -38, 74, 33, 43, 34, 12, 49, 82, -4, 6, 29, 23, 41, 5, 67, -3, 63, 28, 32, -18, -11, 22, -28, 25, -42, -62, -41, 3, -9, 37, -50, 30, 5, 50, -74, 29, 61, 8, -15, 8, -28, -107, 5, 33, 75, -50, 4, -71, -56, 2, 33, -57, -48, 34, 41, -19, -45, -7, -44, -34, 20, -45, -31, -11, 19, 46, 50, 33, 33, -41, -20, 43, 45, 4, 28, 45, -41, 15, -19, 16, 3, -1, 44, -19, 28, -42, 42, 11, 5, 57, -53, -16, -59, -50, -63, -12, 46, -34, -24, -26, -9, 2, -46, 63, 13, -53, 10, 24, -17, -37, 13, -25, 11, -52, -25, 14, -36, 39, -68, -60, 16, -41, 72, 62, -28, -13, -56, 28, 23, -39, -23, 25, 0, 15, 69, 23, -26, -63, -18, 46, 41, 60, 53, -61, -61, 53, 15, -37, 4, -16, 46, -9, -48, 48, 26, 7, -4, -58, -43, -15, 41, 48, -22, 17, 2, 1, -52, 3, -46, -65, 41, -16, 35, 14, 54, 5, 32, -18, -23, -24, 5, 33, 44, 9, 39, 9, 18, 48, 23, 32, -11, 76, 11, -9, 49, -51, 10, -76, -53, -48, 57, 10, 6, -4, -65, 32, 36, 86, 76, -23, -6, 12, 24, 51, -43, -48, 61, -52, -17, 18, -47, 37, 43, -40, -14, 52, -70, -20, 2, -89, -42, 32, 59, -22, 3, -17, 0, 11, -41, -65, 38, 70, 4, 16, 47, 52, -27, 27, 59, -18, -18, -46, -27, -18, -1, -49, -39, 14, -59, 55, -41, -28, -28, 0, 17, -58, 38, 3, -30, -19, 9, 1, -21, 46, -40, 7, -31, 60, 27, -61, 35, -3, 6, -45, -92, -33, 20, -19, -17, 68, -61, -47, -48, -76, 58, 8, -43, -36, 76, 72, 6, 74, -28, 35, 18, 34, -87, -14, -39, 42, -39, -20, -8, -6, -2, 13, -48, 21, -31, 0, 32, 41, -62, 67, 20, -73, 32, -51, 1, -16, 68, -40, -49, -8, 58, 49, 54, 3, 66, 18, -12, 58, 3, 54, 20, 43, 47, -46, -22, -29, 35, -9, -12, -51, 23, -28, 16, 37, 9, -45, -31, 69, 18, -3, -45, -17, -33, -88, 44, 39, 27, -3, 39, -61, -19, 59, 44, -32, -40, 62, 5, -23, -3, 0, 26, 29, 1, 5, -1, -67, 39, -35, 30, 14, 30, 1, 5, 53, -36, 4, -52, -44, -51, -2, 18, -77, -14, -38, -40, 1, -67, 15, -56, 17, 38, 9, 59, -5, 40, 32, -6, -45, 53, 2, 7, -58, -41, -1, 56, 61, 36, -84, -28, 58, -25, -46, -77, -43, -64, 61, 22, 67, -52, 43, 80, 54, -71, 45, 8, 23, -3, 38, -51, -86, -30, 52, 49, -60, -33, -54, 6, -32, -37, -20, -17, -55, 4, 28, -24, 32, 24, 2, -6, 53, 42, -2, 51, 65, -50, 31, -56, 57, -21, -29, 44, 15, -31, 4, 49, -13, -7, -9, 57, 17, -34, -50, -54, 0, -80, -41, -89, -35, 43, 30, 59, -48, 52, -62, -105, -47, -5, 48, 31, -2, -13, 71, 64, -67, 9, -33, -32, -18, -37, 56, 12, 41, 49, -66, -71, -50, 0, 44, 17, 76, -77, -15, -44, 8, -15, 37, -30, 7, -54, 61, 51, -42, -26, 15, 67, 32, 42, 58, -38, -73, 44, 9, -49, -47, 25, -25, -36, 14, -48, -13, 36, -27, 30, 2, -27, 64, 65, 42, 31, 61, -81, 55, 51, -3, 72, 26, 24, -67, 23, -46, -6, 40, 41, 37, 10, 18, 13, 39, 49, -32, 27, 1, 31, 18, -9, -36, 6, 43, 14, -14, -33, -14, -45, -44, 26, -49, -25, 41, 53, 54, 2, 46, 26, 34, 27, -10, 48, -40, -25, 22, 16, -15, 63, -20, 74, -35, 33, -56, -28, -6, -69, 10, 58, -73, -29, -37, 51, 15, -52, 31, 52, 4, -39, 30, 2, 34, 5, -36, -36, 66, -25, 34, 1, 13, -44, -46, -26, 5, -46, 5, 8, 4, -9, 69, -20, 66, -32, -36, -34, 58, -40, 14, 31, 33, 42, 55, -58, -3, 13, 33, 9, -54, 11, -40, -15, -11, 18, -58, 49, -17, 34, 35, -20, -38, 36, 26, 28, -46, -28, -13, -13, -48, -22, 27, -48, -24, 52, 36, 56, 43, 14, 53, -38, 28, 14, 66, -39, 5, 11, 53, 53, 48, 45, 61, 7, 78, -32, -20, 73, 50, -2, -34, 40, -36, -28, 22, 30, 67, -15, 22, 36, 29, -25, 15, -35, 19, 56, 26, 22, 6, 44, -18, -43, 70, -54, 59, 46, 74, 85, 55, -73, -36, -92, 60, 17, -44, -44, 69, 37, 33, -34, 39, -22, -28, 19, 33, -3, -42, -10, 37, 51, 15, -6, 20, -51, 40, -10, -48, 24, -26, 50, -8, -80, -34, -64, 14, 64, 19, -33, 21, 55, -46, 44, -62, 74, 8, -25, -36, -36, -15, -45, 12, 25, 23, -36, -45, -95, 72, 2, -56, 32, -46, 43, 33, -3, -53, 39, 11, -13, -44, -9, 46, 65, -72, -42, 13, -35, 49, 7, 19, -61, -5, 68, 13, 34, 69, 7, -8, -51, -48, -16, 9, 48, 32, 2, 21, -10, 16, -86, 29, 40, 59, 9, -34, 37, 33, -30, -43, 62, -12, -34, 21, 31, 15, 7, -9, -29, -48, 15, -30, -23, -76, 31, 13, -38, 11, 65, 36, -44, -39, 10, -53, 50, -45, 85, -52, -19, 5, 50, -36, -17, 14, -34, 69, -26, 70, 68, -32, -18, 64, 36, 28, 70, 43, -83, -66, 49, -34, 25, 11, 10, 62, -66, -43, 2, 32, 53, 39, 71, -1, 71, 7, -33, -3, 1, -4, 42, 39, 28, -88, -49, -31, 37, 27, -44, 37, -6, 31, 3, -14, 66, 71, 88, 39, 33, 68, -31, 35, 38, -26, -44, -86, -17, 57, 37, 37, 52, -2, 18, 49, -21, 23, -50, 67, -16, -45, 65, -46, -37, -8, 55, -45, -15, -8, -57, 31, 4, 21, 49, 51, 51, 67, 56, -31, -35, 21, -53, 17, 68, -31, 67, -18, -43, -60, -52, 43, -41, 53, -45, -56, -77, -65, -14, -46, -40, -13, -45, -21, -72, 21, -7, 53, 0, -33, 65, 25, -52, 20, 75, 36, -11, 14, -46, -17, 19, 26, 26, 22, -54, 20, 9, -38, -2, -45, -27, -36, 18, 78, 2, -19, -91, 46, -23, -14, 20, -18, 66, -83, 59, -41, 71, -27, 46, 72, -15, 34, 52, -3, 14, -8, -78, -13, 7, 16, -57, 22, 65, 55, 11, 60, 52, -35, -40, -7, -20, 66, 2, 27, -6, -10, 73, 59, -12, 66, -8, -37, -12, 39, -45, 8, 40, 53, 71, 10, -31, -34, -49, -25, 65, -24, 66, -52, -48, 34, 88, 53, 18, 27, -59, 10, 43, 20, 20, -7, -2, 73, -43, -55, 42, 17, 39, -31, 20, 8, 43, -44, 62, -55, -13, 34, 57, 56, 74, 81, 1, 39, 36, 38, 47, 70, -20, 64, -42, 45, -3, -11, -15, -9, -25, 59, 53, -18, 23, -26, -59, 20, -97, -32, 8, 24, -30, -54, -3, -27, 52, 44, 50, 12, -28, -25, -44, 42, 15, 62, 46, -30, -54, -41, 34, 23, -7, 12, -43, -16, -26, 33, 59, -30, 25, 25, 4, -15, -59, -47, -41, -11, 53, -11, 43, -43, 29, 22, 32, -21, 19, 42, 1, -98, 45, 20, -35, 40, -9, -30, 7, 52, -43, -11, -43, 1, 9, 58, 27, 28, -67, -31, 3, -12, 48, 39, -4, 45, -9, 23, 7, 57, 63, -17, 26, -60, -38, -31, 41, 19, 59, 71, -42, 0, 63, -6, -56, 2, -3, -68, 22, -48, -24, 3, -52, 23, 55, 34, 30, -28, -52, -20, 1, 32, -1, -26, 9, -23, 41, 72, 57, -45, 47, 18, 40, -43, -17, 8, 45, 14, 10, 26, -54, -9, -23, 11, 5, -34, 60, -14, -24, 43, 8, 35, -33, -13, -34, 7, 8, -47, 23, 59, -33, 11, 35, 55, 38, -32, 65, 34, -23, -41, -34, 13, 36, 20, 30, -14, -32, 6, -22, 11, 5, -16, -25, 34, -22, -49, -33, -20, -33, -2, 55, -8, 55, 66, 4, 38, -44, -26, 28, -15, 46, -16, -41, -16, -87, 45, 13, 3, 23, -29, -50, -54, 25, -47, -71, -7, 12, 62, 33, -38, -10, 40, -26, 30, -28, -14, 17, 34, 44, 40, 43, -9, 44, 40, 84, -23, -87, 39, -69, -64, -28, 77, -32, 29, -24, 66, -67, -44, -33, -38, -9, -25, 39, 18, -37, 26, -31, 72, -28, 13, -3, 55, -54, -60, -31, -17, -12, 33, 35, 29, -45, -71, 38, -14, -29, -29, -64, 18, -35, -40, 70, 42, -6, -39, 20, 73, -2, -38, 46, 23, -44, 27, -32, 3, -34, -56, 54, 11, 1, 65, 3, 61, 51, 60, -24, 23, -9, 30, -27, 51, -60, 27, 36, -37, 9, -12, 48, -32, 2, 66, 66, -35, 50, 13, 46, 56, -2, 3, -51, -45, 48, 14, -40, -32, -37, -5, 46, 
